{"learner":{"attributes":{"best_iteration":"99","best_ntree_limit":"100","scikit_learn":"{\"use_label_encoder\": false, \"n_estimators\": 100, \"objective\": \"binary:logistic\", \"max_depth\": null, \"max_leaves\": null, \"max_bin\": null, \"grow_policy\": null, \"learning_rate\": null, \"verbosity\": null, \"booster\": null, \"tree_method\": \"hist\", \"gamma\": null, \"min_child_weight\": null, \"max_delta_step\": null, \"subsample\": null, \"sampling_method\": null, \"colsample_bytree\": null, \"colsample_bylevel\": null, \"colsample_bynode\": null, \"reg_alpha\": null, \"reg_lambda\": null, \"scale_pos_weight\": null, \"base_score\": null, \"missing\": NaN, \"num_parallel_tree\": null, \"random_state\": null, \"n_jobs\": null, \"monotone_constraints\": null, \"interaction_constraints\": null, \"importance_type\": null, \"gpu_id\": null, \"validate_parameters\": null, \"predictor\": null, \"enable_categorical\": true, \"max_cat_to_onehot\": null, \"eval_metric\": null, \"early_stopping_rounds\": null, \"callbacks\": null, \"classes_\": [0, 1], \"n_classes_\": 2, \"_estimator_type\": \"classifier\"}"},"feature_names":["loan_amnt","int_rate","annual_inc","mort_acc","open_acc","dti","revol_util","term","application_type","purpose","grade","home_ownership","earliest_cr_line","pub_rec_bankruptcies","verification_status"],"feature_types":["float","float","float","float","float","float","float","int","c","c","c","c","int","float","c"],"gradient_booster":{"model":{"gbtree_model_param":{"num_parallel_tree":"1","num_trees":"100","size_leaf_vector":"0"},"tree_info":[0,0,0,0,0,0,0,0,0,0,0,0,0,0,0,0,0,0,0,0,0,0,0,0,0,0,0,0,0,0,0,0,0,0,0,0,0,0,0,0,0,0,0,0,0,0,0,0,0,0,0,0,0,0,0,0,0,0,0,0,0,0,0,0,0,0,0,0,0,0,0,0,0,0,0,0,0,0,0,0,0,0,0,0,0,0,0,0,0,0,0,0,0,0,0,0,0,0,0,0],"trees":[{"base_weights":[1.216416E0,1.4258298E0,6.691566E-1,1.5849068E0,1.1543528E0,8.8146937E-1,4.538929E-1,1.7473403E0,1.4949769E0,1.2742201E0,9.7473997E-1,1.00615E0,6.457896E-1,1.2649165E-1,5.9985554E-1,1.8458897E0,1.7052726E0,1.5704546E0,1.4130502E0,1.3311726E0,1.1077358E0,1.0512489E0,7.341065E-1,1.0834303E0,7.732401E-1,7.585055E-1,3.586207E-1,2.9300457E-1,-1.1764706E-1,7.447796E-1,3.2403222E-1,1.7013801E0,1.8647802E0,1.6216615E0,1.7574319E0,1.4341655E0,1.6137251E0,1.4860346E0,1.3360682E0,1.1295366E0,1.3868409E0,7.77193E-1,1.1905394E0,8.88588E-1,1.1896396E0,5.846346E-1,8.5425615E-1,9.703779E-1,1.1815573E0,6.1731493E-1,9.3213254E-1,6.4042073E-1,1.0255885E0,5.7498646E-1,1.50493E-1,8.144797E-2,4.0580347E-1,-6.1122958E-2,-5.5616945E-1,5.7666665E-1,8.6499405E-1,5.310979E-1,1.8127675E-1,5.1584417E-1,3.3103448E-1,5.751432E-1,5.49319E-1,3.949192E-1,4.8971042E-1,5.3268075E-1,4.7629514E-1,4.57265E-1,4.1102052E-1,4.8993137E-1,4.4187948E-1,4.549903E-1,3.8054666E-1,4.2305577E-1,3.684048E-1,3.5995433E-1,2.802508E-1,3.8835233E-1,4.3244278E-1,3.530686E-1,2.161435E-1,3.154715E-1,3.8057142E-1,2.374314E-1,3.35733E-1,3.4025234E-1,4.0677294E-1,2.0785342E-1,9.3216635E-2,1.860262E-1,2.7069598E-1,3.3437747E-1,2.5762442E-1,3.2783735E-1,3.8481176E-1,2.523266E-1,1.475889E-1,2.9368865E-1,1.21839084E-1,1.3510062E-1,2.4251701E-1,3.4848002E-1,2.7667657E-1,1.01062216E-1,2.114094E-1,-4.7149464E-2,9.1731675E-2,1.20000005E-1,-9.35065E-4,1.3235088E-1,-4.316547E-2,3.5208713E-2,-5.272162E-2,-1.8E-1,1.1111111E-1,2.1412152E-1,1.3047887E-1,2.7498862E-1,1.5141955E-1,1.0224033E-1,1.9676986E-1,-4.0477426E-3,8.695652E-2],"categories":[3,4,5,6,2,3,4,5,6,1,2,3,4,5,6,0,1,2,4,5,6,0,1,2,4,5,6,1,2,3,1,3,0,1,2,4,5,6,3,5,10,11,12,3,11,4,5,6],"categories_nodes":[0,1,3,11,12,18,26,30,31,50,57],"categories_segments":[0,4,9,15,21,27,30,32,38,43,45],"categories_sizes":[4,5,6,6,6,3,2,6,5,2,3],"default_left":[0,0,0,0,0,0,0,0,0,0,0,0,0,0,0,0,0,0,0,0,0,0,0,0,0,0,0,0,0,0,0,0,0,0,0,0,0,0,0,0,0,0,0,0,0,0,0,0,0,0,0,0,0,0,0,0,0,0,0,0,0,0,0,0,0,0,0,0,0,0,0,0,0,0,0,0,0,0,0,0,0,0,0,0,0,0,0,0,0,0,0,0,0,0,0,0,0,0,0,0,0,0,0,0,0,0,0,0,0,0,0,0,0,0,0,0,0,0,0,0,0,0,0,0,0,0,0],"id":0,"left_children":[1,3,5,7,9,11,13,15,17,19,21,23,25,27,29,31,33,35,37,39,41,43,45,47,49,51,53,55,57,59,61,63,65,67,69,71,73,75,77,79,81,83,85,87,89,91,93,95,97,99,101,103,105,107,109,111,113,115,117,119,121,123,125,-1,-1,-1,-1,-1,-1,-1,-1,-1,-1,-1,-1,-1,-1,-1,-1,-1,-1,-1,-1,-1,-1,-1,-1,-1,-1,-1,-1,-1,-1,-1,-1,-1,-1,-1,-1,-1,-1,-1,-1,-1,-1,-1,-1,-1,-1,-1,-1,-1,-1,-1,-1,-1,-1,-1,-1,-1,-1,-1,-1,-1,-1,-1,-1],"loss_changes":[7.9255234E3,2.1583984E3,8.7451953E2,4.5807812E2,3.967422E2,2.8252344E2,4.5428394E2,4.3421875E1,1.2334766E2,1.0361328E2,1.3552246E2,1.1257129E2,1.077417E2,1.1926752E2,2.62614E2,5.96875E0,3.153711E1,5.9960938E1,5.2779297E1,9.107422E1,7.655957E1,1.2533496E2,3.1633728E1,5.1309082E1,3.8402344E1,7.4893555E1,4.235585E1,4.158464E1,2.9462635E1,8.660449E1,6.6908325E1,2.4155273E0,1.6992188E0,7.7939453E0,1.2125E1,1.2652344E1,1.9441406E1,3.1324219E1,3.6336914E1,2.3481201E1,3.0739258E1,1.2073395E1,2.3195068E1,5.700586E1,2.6412598E1,2.3511597E1,1.0580139E1,3.4503906E1,2.1284912E1,2.1942444E1,1.8747986E1,5.275702E1,9.227112E0,1.402417E1,2.3062643E1,1.6373001E1,2.2171997E1,2.1608122E1,5.735134E0,3.4660217E1,4.624707E1,2.1732727E1,2.841058E1,0E0,0E0,0E0,0E0,0E0,0E0,0E0,0E0,0E0,0E0,0E0,0E0,0E0,0E0,0E0,0E0,0E0,0E0,0E0,0E0,0E0,0E0,0E0,0E0,0E0,0E0,0E0,0E0,0E0,0E0,0E0,0E0,0E0,0E0,0E0,0E0,0E0,0E0,0E0,0E0,0E0,0E0,0E0,0E0,0E0,0E0,0E0,0E0,0E0,0E0,0E0,0E0,0E0,0E0,0E0,0E0,0E0,0E0,0E0,0E0,0E0,0E0,0E0,0E0],"parents":[2147483647,0,0,1,1,2,2,3,3,4,4,5,5,6,6,7,7,8,8,9,9,10,10,11,11,12,12,13,13,14,14,15,15,16,16,17,17,18,18,19,19,20,20,21,21,22,22,23,23,24,24,25,25,26,26,27,27,28,28,29,29,30,30,31,31,32,32,33,33,34,34,35,35,36,36,37,37,38,38,39,39,40,40,41,41,42,42,43,43,44,44,45,45,46,46,47,47,48,48,49,49,50,50,51,51,52,52,53,53,54,54,55,55,56,56,57,57,58,58,59,59,60,60,61,61,62,62],"right_children":[2,4,6,8,10,12,14,16,18,20,22,24,26,28,30,32,34,36,38,40,42,44,46,48,50,52,54,56,58,60,62,64,66,68,70,72,74,76,78,80,82,84,86,88,90,92,94,96,98,100,102,104,106,108,110,112,114,116,118,120,122,124,126,-1,-1,-1,-1,-1,-1,-1,-1,-1,-1,-1,-1,-1,-1,-1,-1,-1,-1,-1,-1,-1,-1,-1,-1,-1,-1,-1,-1,-1,-1,-1,-1,-1,-1,-1,-1,-1,-1,-1,-1,-1,-1,-1,-1,-1,-1,-1,-1,-1,-1,-1,-1,-1,-1,-1,-1,-1,-1,-1,-1,-1,-1,-1,-1],"split_conditions":[NaN,NaN,6E1,NaN,1.977E1,2.201E1,1.0328947E-1,6.68E0,1.674E1,6E1,6E1,NaN,NaN,2.3E1,2.212E1,4.25E4,6.1E4,4.85E4,NaN,4.0413E4,5.25E4,5.202312E-2,1.1512688E0,5.6E4,1.0328947E-1,1.825E1,NaN,5.3E4,3.492E1,7.2E4,NaN,NaN,2.13E1,2.2E4,2.438E1,7E3,6E1,6E1,2.367E1,9.5E3,3.6549926E-1,1.96E1,1.3580129E0,1.51E1,8.2E4,2.823E1,5.1E4,6.85E3,1.235885E0,1.082E1,NaN,5.202312E-2,8.4E3,1.972E1,3.28E4,1.167E1,2.569E1,NaN,3.2E4,1.615E4,2.383E1,6.1E4,6E4,5.1584417E-1,3.3103448E-1,5.751432E-1,5.49319E-1,3.949192E-1,4.8971042E-1,5.3268075E-1,4.7629514E-1,4.57265E-1,4.1102052E-1,4.8993137E-1,4.4187948E-1,4.549903E-1,3.8054666E-1,4.2305577E-1,3.684048E-1,3.5995433E-1,2.802508E-1,3.8835233E-1,4.3244278E-1,3.530686E-1,2.161435E-1,3.154715E-1,3.8057142E-1,2.374314E-1,3.35733E-1,3.4025234E-1,4.0677294E-1,2.0785342E-1,9.3216635E-2,1.860262E-1,2.7069598E-1,3.3437747E-1,2.5762442E-1,3.2783735E-1,3.8481176E-1,2.523266E-1,1.475889E-1,2.9368865E-1,1.21839084E-1,1.3510062E-1,2.4251701E-1,3.4848002E-1,2.7667657E-1,1.01062216E-1,2.114094E-1,-4.7149464E-2,9.1731675E-2,1.20000005E-1,-9.35065E-4,1.3235088E-1,-4.316547E-2,3.5208713E-2,-5.272162E-2,-1.8E-1,1.1111111E-1,2.1412152E-1,1.3047887E-1,2.7498862E-1,1.5141955E-1,1.0224033E-1,1.9676986E-1,-4.0477426E-3,8.695652E-2],"split_indices":[10,10,7,10,5,5,3,1,5,7,7,10,10,5,5,2,2,2,11,2,2,3,3,2,3,1,11,2,5,2,10,9,6,2,5,0,7,7,5,0,3,6,3,1,2,5,2,0,3,5,9,3,0,1,2,5,1,10,0,0,1,2,2,0,0,0,0,0,0,0,0,0,0,0,0,0,0,0,0,0,0,0,0,0,0,0,0,0,0,0,0,0,0,0,0,0,0,0,0,0,0,0,0,0,0,0,0,0,0,0,0,0,0,0,0,0,0,0,0,0,0,0,0,0,0,0,0],"split_type":[1,1,0,1,0,0,0,0,0,0,0,1,1,0,0,0,0,0,1,0,0,0,0,0,0,0,1,0,0,0,1,1,0,0,0,0,0,0,0,0,0,0,0,0,0,0,0,0,0,0,1,0,0,0,0,0,0,1,0,0,0,0,0,0,0,0,0,0,0,0,0,0,0,0,0,0,0,0,0,0,0,0,0,0,0,0,0,0,0,0,0,0,0,0,0,0,0,0,0,0,0,0,0,0,0,0,0,0,0,0,0,0,0,0,0,0,0,0,0,0,0,0,0,0,0,0,0],"sum_hessian":[6.916325E4,5.002075E4,1.91425E4,3.15365E4,1.848425E4,9.63575E3,9.50675E3,1.12315E4,2.0305E4,1.108225E4,7.402E3,6.29975E3,3.336E3,2.932E3,6.57475E3,3.34725E3,7.88425E3,1.0559E4,9.746E3,8.25225E3,2.83E3,5.61375E3,1.78825E3,4.7275E3,1.57225E3,2.3945E3,9.415E2,1.743E3,1.189E3,4.309E3,2.26575E3,3.975E2,2.94975E3,3.04125E3,4.843E3,2.55275E3,8.00625E3,4.9935E3,4.7525E3,1.79E3,6.46225E3,5.69E2,2.261E3,2.584E3,3.02975E3,7.995E2,9.8875E2,2.20175E3,2.52575E3,7.96E2,7.7625E2,1.66275E3,7.3175E2,4.6075E2,4.8075E2,6.0675E2,1.13625E3,1.05425E3,1.3475E2,1.799E3,2.51E3,9.235E2,1.34225E3,3.84E2,1.35E1,1.1335E3,1.81625E3,1.0725E2,2.934E3,4.36625E3,4.7675E2,1.052E3,1.50075E3,7.02825E3,9.78E2,4.3725E3,6.21E2,2.81175E3,1.94075E3,1.3125E3,4.775E2,2.4115E3,4.05075E3,6.825E1,5.0075E2,8.1825E2,1.44275E3,1.821E3,7.63E2,2.27775E3,7.52E2,5.72E2,2.275E2,1.7075E2,8.18E2,9.5675E2,1.245E3,1.3515E3,1.17425E3,2.8375E2,5.1225E2,7.12E2,6.425E1,7.8175E2,8.81E2,3.115E2,4.2025E2,1.6375E2,2.97E2,1.6125E2,3.195E2,1.265E2,4.8025E2,1.06775E3,6.85E1,4.1225E2,6.42E2,1.29E2,5.75E0,9.125E2,8.865E2,2.194E3,3.16E2,3.6725E2,5.5625E2,4.8075E2,8.615E2],"tree_param":{"num_deleted":"0","num_feature":"15","num_nodes":"127","size_leaf_vector":"0"}},{"base_weights":[8.901449E-1,1.183735E0,6.523641E-1,1.3131534E0,1.1027377E0,7.5194883E-1,2.9610875E-1,1.3719689E0,1.2518148E0,1.003562E0,1.1537771E0,8.368775E-1,5.723788E-1,5.0628495E-1,1.6331145E-1,1.1935918E0,1.3881391E0,1.3033094E0,1.1747121E0,1.0223283E0,6.6418785E-1,1.1837475E0,1.0193946E0,9.138638E-1,7.019213E-1,6.5985817E-1,3.629208E-1,3.924167E-1,6.498913E-1,4.2310372E-2,3.276125E-1,1.0487328E0,1.3120384E0,1.3925846E0,9.209473E-1,1.2040795E0,1.3317667E0,1.2262435E0,1.0734236E0,9.491837E-1,1.0691289E0,8.4607565E-1,4.6923068E-1,1.2045037E0,1.0364821E0,1.049006E0,8.000804E-1,8.588877E-1,1.0292931E0,7.8158617E-1,5.5215997E-1,7.765102E-1,5.2598536E-1,4.742023E-1,1.3804153E-1,7.2729343E-1,3.222461E-1,7.2917104E-1,4.7490826E-1,9.467124E-2,-3.4922305E-1,1.0004125E0,2.9775897E-1,3.5726824E-1,2.4928351E-1,4.0871212E-1,3.0307853E-1,4.2876226E-1,4.0086624E-1,1.6183352E-1,3.5856557E-1,3.644415E-1,1.4887013E-1,4.0931913E-1,3.8383815E-1,3.683496E-1,-3.956116E-2,1.7736763E-1,3.3017647E-1,3.080998E-1,2.5933254E-1,3.3718967E-1,2.914147E-1,2.9183957E-1,1.9164672E-1,1.5523307E-1,-2.3920402E-1,3.3866727E-1,3.7036967E-1,2.9140306E-1,3.591634E-1,3.1932718E-1,1.9273503E-1,2.4703383E-1,-1.50135E-1,2.7284172E-1,2.0257325E-1,3.4257388E-1,2.906483E-1,2.1405974E-1,2.684521E-1,1.0681752E-1,1.9982168E-1,2.5050008E-1,1.9989307E-1,1.7300919E-1,8.611256E-2,1.7394249E-1,1.012217E-1,7.43691E-2,-4.4582576E-2,1.4881288E-1,2.521743E-1,1.6361901E-1,7.9765305E-2,2.5333384E-1,1.9275844E-1,8.236812E-2,1.9699374E-1,1.3324038E-2,1.4253063E-1,-8.5526384E-2,-1.6046643E-1,3.137387E-1,-7.968797E-3,1.06195025E-1,7.090297E-3],"categories":[2,3,4,5,6,0,1,4,5,6,0,1,3,4,5,6,3,10,11,1,3,3,1,3,0,1,2,3,5,6,3,5,6,8,9,10,12,10,11,1,2,3,3,10,0,1,3,4,5,6,1,2,3,6,7,8,11,12,0,1,3],"categories_nodes":[0,2,11,16,18,25,26,28,32,35,36,37,51,56,59,62],"categories_segments":[0,5,10,16,19,21,22,24,30,37,39,42,44,50,58,59],"categories_sizes":[5,5,6,3,2,1,2,6,7,2,3,2,6,8,1,2],"default_left":[0,0,0,0,0,0,0,0,0,0,0,0,0,0,0,0,0,0,0,0,0,0,0,0,0,0,0,0,0,0,0,0,0,0,0,0,0,0,0,0,0,0,0,0,0,0,0,0,0,0,0,0,0,0,0,0,0,0,0,0,0,0,0,0,0,0,0,0,0,0,0,0,0,0,0,0,0,0,0,0,0,0,0,0,0,0,0,0,0,0,0,0,0,0,0,0,0,0,0,0,0,0,0,0,0,0,0,0,0,0,0,0,0,0,0,0,0,0,0,0,0,0,0,0,0,0,0],"id":1,"left_children":[1,3,5,7,9,11,13,15,17,19,21,23,25,27,29,31,33,35,37,39,41,43,45,47,49,51,53,55,57,59,61,63,65,67,69,71,73,75,77,79,81,83,85,87,89,91,93,95,97,99,101,103,105,107,109,111,113,115,117,119,121,123,125,-1,-1,-1,-1,-1,-1,-1,-1,-1,-1,-1,-1,-1,-1,-1,-1,-1,-1,-1,-1,-1,-1,-1,-1,-1,-1,-1,-1,-1,-1,-1,-1,-1,-1,-1,-1,-1,-1,-1,-1,-1,-1,-1,-1,-1,-1,-1,-1,-1,-1,-1,-1,-1,-1,-1,-1,-1,-1,-1,-1,-1,-1,-1,-1],"loss_changes":[4.6491484E3,3.1098438E2,1.3055029E3,3.9654297E1,9.166797E1,4.3817773E2,2.2437769E2,1.5199219E1,2.0802734E1,3.9052734E1,4.752832E1,2.0222266E2,1.6904565E2,5.0655212E1,9.799141E1,7.0806274E0,9.833008E0,7.894043E0,1.0493164E1,1.921582E1,1.12960205E1,2.8975586E1,1.3537598E1,7.799219E1,8.4237305E1,1.0134546E2,6.810306E1,4.0629456E1,1.8733582E1,5.8257652E1,4.1692947E1,6.0291595E0,2.6819458E0,9.029297E0,4.9425583E0,5.1672363E0,2.6992188E0,3.38208E0,9.447876E0,1.4376709E1,1.8182617E1,3.8262558E0,1.0268631E1,1.8291016E1,1.1700439E1,1.1521973E1,8.542618E0,7.765576E1,2.6166504E1,3.504712E1,5.4885925E1,2.1872803E1,3.6635254E1,2.6124023E1,2.8477526E1,7.454651E0,1.796016E1,8.892395E0,1.5538521E1,4.788992E1,3.8392296E0,4.1478577E0,3.0866135E1,0E0,0E0,0E0,0E0,0E0,0E0,0E0,0E0,0E0,0E0,0E0,0E0,0E0,0E0,0E0,0E0,0E0,0E0,0E0,0E0,0E0,0E0,0E0,0E0,0E0,0E0,0E0,0E0,0E0,0E0,0E0,0E0,0E0,0E0,0E0,0E0,0E0,0E0,0E0,0E0,0E0,0E0,0E0,0E0,0E0,0E0,0E0,0E0,0E0,0E0,0E0,0E0,0E0,0E0,0E0,0E0,0E0,0E0,0E0,0E0,0E0,0E0,0E0,0E0],"parents":[2147483647,0,0,1,1,2,2,3,3,4,4,5,5,6,6,7,7,8,8,9,9,10,10,11,11,12,12,13,13,14,14,15,15,16,16,17,17,18,18,19,19,20,20,21,21,22,22,23,23,24,24,25,25,26,26,27,27,28,28,29,29,30,30,31,31,32,32,33,33,34,34,35,35,36,36,37,37,38,38,39,39,40,40,41,41,42,42,43,43,44,44,45,45,46,46,47,47,48,48,49,49,50,50,51,51,52,52,53,53,54,54,55,55,56,56,57,57,58,58,59,59,60,60,61,61,62,62],"right_children":[2,4,6,8,10,12,14,16,18,20,22,24,26,28,30,32,34,36,38,40,42,44,46,48,50,52,54,56,58,60,62,64,66,68,70,72,74,76,78,80,82,84,86,88,90,92,94,96,98,100,102,104,106,108,110,112,114,116,118,120,122,124,126,-1,-1,-1,-1,-1,-1,-1,-1,-1,-1,-1,-1,-1,-1,-1,-1,-1,-1,-1,-1,-1,-1,-1,-1,-1,-1,-1,-1,-1,-1,-1,-1,-1,-1,-1,-1,-1,-1,-1,-1,-1,-1,-1,-1,-1,-1,-1,-1,-1,-1,-1,-1,-1,-1,-1,-1,-1,-1,-1,-1,-1,-1,-1,-1],"split_conditions":[NaN,9.17E0,NaN,7.69E0,5.04E4,2.212E1,1.666E1,3.7E4,1.726E1,6E1,2.3E1,NaN,6E1,1.0074048E0,1.0074048E0,1.999E3,NaN,5.2E4,NaN,3.648E4,1.114E1,6E1,6E1,8.1E4,6E1,NaN,NaN,6E3,NaN,3.321E1,1.824E1,2.78E1,NaN,3.85E1,6.75E4,NaN,NaN,NaN,1.986E3,7.125E3,2.11E1,1.931E1,3.247E1,5.202312E-2,1.08E5,3.443E1,1.379E1,6E1,1.43E4,1.799E1,6.21E4,NaN,3.215E1,1.645E1,3.033E1,4.2E1,NaN,1.082E1,8.7E4,NaN,2.343E1,1.5E5,NaN,3.5726824E-1,2.4928351E-1,4.0871212E-1,3.0307853E-1,4.2876226E-1,4.0086624E-1,1.6183352E-1,3.5856557E-1,3.644415E-1,1.4887013E-1,4.0931913E-1,3.8383815E-1,3.683496E-1,-3.956116E-2,1.7736763E-1,3.3017647E-1,3.080998E-1,2.5933254E-1,3.3718967E-1,2.914147E-1,2.9183957E-1,1.9164672E-1,1.5523307E-1,-2.3920402E-1,3.3866727E-1,3.7036967E-1,2.9140306E-1,3.591634E-1,3.1932718E-1,1.9273503E-1,2.4703383E-1,-1.50135E-1,2.7284172E-1,2.0257325E-1,3.4257388E-1,2.906483E-1,2.1405974E-1,2.684521E-1,1.0681752E-1,1.9982168E-1,2.5050008E-1,1.9989307E-1,1.7300919E-1,8.611256E-2,1.7394249E-1,1.012217E-1,7.43691E-2,-4.4582576E-2,1.4881288E-1,2.521743E-1,1.6361901E-1,7.9765305E-2,2.5333384E-1,1.9275844E-1,8.236812E-2,1.9699374E-1,1.3324038E-2,1.4253063E-1,-8.5526384E-2,-1.6046643E-1,3.137387E-1,-7.968797E-3,1.06195025E-1,7.090297E-3],"split_indices":[10,1,10,1,2,5,5,2,5,7,5,10,7,3,3,12,9,2,11,2,1,7,7,2,7,11,11,0,10,5,1,6,9,6,2,9,11,9,12,0,5,5,5,3,2,5,1,7,0,1,2,10,5,1,5,6,9,5,2,14,1,2,11,0,0,0,0,0,0,0,0,0,0,0,0,0,0,0,0,0,0,0,0,0,0,0,0,0,0,0,0,0,0,0,0,0,0,0,0,0,0,0,0,0,0,0,0,0,0,0,0,0,0,0,0,0,0,0,0,0,0,0,0,0,0,0,0],"split_type":[1,0,1,0,0,0,0,0,0,0,0,1,0,0,0,0,1,0,1,0,0,0,0,0,0,1,1,0,1,0,0,0,1,0,0,1,1,1,0,0,0,0,0,0,0,0,0,0,0,0,0,1,0,0,0,0,1,0,0,1,0,0,1,0,0,0,0,0,0,0,0,0,0,0,0,0,0,0,0,0,0,0,0,0,0,0,0,0,0,0,0,0,0,0,0,0,0,0,0,0,0,0,0,0,0,0,0,0,0,0,0,0,0,0,0,0,0,0,0,0,0,0,0,0,0,0,0],"sum_hessian":[6.660716E4,2.980396E4,3.6803195E4,1.146686E4,1.8337102E4,2.8762145E4,8.04105E3,5.842917E3,5.6239434E3,6.237511E3,1.2099589E4,1.9524332E4,9.237812E3,3.1123572E3,4.9286924E3,4.9186536E2,5.351052E3,3.362396E3,2.2615474E3,5.908762E3,3.287494E2,9.886794E3,2.2127952E3,1.2428618E4,7.0957144E3,6.514784E3,2.7230273E3,1.7379972E3,1.3743599E3,2.8390813E3,2.0896113E3,2.256957E2,2.6616968E2,5.298654E3,5.239806E1,7.590194E2,2.6033765E3,1.4915831E3,7.6996423E2,2.3138027E3,3.5949592E3,1.6834756E2,1.6040181E2,8.659161E3,1.2276326E3,1.9462356E3,2.6655948E2,8.424624E3,4.0039944E3,4.6290776E3,2.4666367E3,3.4787368E3,3.0360476E3,1.8208639E3,9.021633E2,2.9946906E2,1.4385282E3,9.436515E2,4.307084E2,2.5048577E3,3.3422348E2,8.739966E1,2.0022115E3,1.3385408E2,9.184161E1,2.251079E2,4.1061783E1,3.1970117E3,2.1016418E3,2.3155855E1,2.9242203E1,7.469847E2,1.2034758E1,1.5877827E3,1.01559375E3,1.4899364E3,1.6467521E0,4.2276516E1,7.276877E2,1.2003987E3,1.113404E3,2.2962463E3,1.2987129E3,1.0217808E2,6.6169495E1,1.550897E2,5.3120985E0,2.4742925E3,6.184869E3,8.7860486E2,3.4902777E2,1.8735654E3,7.26701E1,2.622153E2,4.3441906E0,6.602115E3,1.8225085E3,1.3925023E3,2.611492E3,2.8961184E3,1.7329592E3,9.078633E2,1.5587733E3,2.2682551E3,1.2104816E3,2.5033406E3,5.327072E2,1.0257523E3,7.9511163E2,6.5230853E2,2.4985478E2,1.0023692E2,1.9923215E2,2.8831982E2,1.1502084E3,4.011676E2,5.424839E2,2.0605908E2,2.2464932E2,2.213548E3,2.9130963E2,2.502976E2,8.392589E1,8.368327E1,3.7163873E0,1.6611995E3,3.4101215E2],"tree_param":{"num_deleted":"0","num_feature":"15","num_nodes":"127","size_leaf_vector":"0"}},{"base_weights":[6.8172926E-1,9.4786143E-1,4.809658E-1,1.0902953E0,8.7321377E-1,6.3295126E-1,3.4159446E-1,1.2344154E0,1.0625715E0,8.0389965E-1,9.3810236E-1,7.13128E-1,5.177575E-1,4.6717763E-1,2.1848635E-1,1.2356234E0,-3.2673877E-2,9.165156E-1,1.0908314E0,8.2127875E-1,5.54194E-1,9.7083324E-1,8.1344783E-1,5.9893984E-1,7.680869E-1,4.4569623E-1,6.1928564E-1,5.297486E-1,2.668654E-1,8.8097565E-2,3.5166168E-1,6.4254655E-3,1.2368083E0,2.9785557E-2,9.241477E-1,1.1110647E0,9.279928E-1,7.353634E-1,8.5452855E-1,6.969472E-1,4.3628716E-1,1.0167863E0,9.1304916E-1,8.761262E-1,6.934651E-1,6.4385676E-1,3.580977E-1,8.658739E-1,6.9010186E-1,5.8518845E-1,3.9438E-1,7.0217663E-1,4.4874415E-1,4.3161327E-1,6.2043613E-1,3.9517945E-1,1.3337976E-1,1.5930961E-1,-1.15516804E-1,5.1372755E-1,2.4840778E-1,3.827333E-1,3.5546714E-1,-2.5349182E-1,1.5548663E-1,3.134356E-1,2.577844E-1,3.3474806E-1,1.9485822E-1,2.936613E-1,2.3756157E-1,2.7714565E-1,2.1214756E-1,2.719348E-1,2.3599584E-1,2.5428316E-1,1.3937879E-1,1.3978525E-1,-2.0439981E-1,3.1814888E-1,2.7557936E-1,2.8223416E-1,2.1905161E-1,2.7676395E-1,2.3118131E-1,2.1394165E-1,-1.4134484E-2,1.3628477E-1,2.0442209E-1,1.3026531E-1,2.917818E-2,2.3871523E-1,2.8450155E-1,1.6898891E-1,2.2049432E-1,1.5734498E-1,2.593681E-1,1.2205491E-1,-5.264254E-2,1.7172489E-1,2.2492574E-1,1.2375863E-1,2.2382538E-1,1.0644813E-1,1.7113876E-1,2.57859E-1,1.7524587E-1,2.1867196E-1,1.02993585E-1,1.066267E-1,1.4949172E-2,9.850087E-2,3.1428006E-2,7.6942607E-3,-6.915783E-2,1.7979395E-1,1.1709981E-1,2.7229505E-2,9.823447E-2],"categories":[2,3,4,5,6,1,2,3,4,5,6,0,1,3,4,5,6,10,1,2,3,1,3,11,1,3,3,5,9,10,12,1,3,0,6,11,12,0,3],"categories_nodes":[0,1,2,7,22,28,35,36,40,41,50,53,58],"categories_segments":[0,5,11,17,18,21,23,24,26,31,33,37,38],"categories_sizes":[5,6,6,1,3,2,1,2,5,2,4,1,1],"default_left":[0,0,0,0,0,0,0,0,0,0,0,0,0,0,0,0,0,0,0,0,0,0,0,0,0,0,0,0,0,0,0,0,0,0,0,0,0,0,0,0,0,0,0,0,0,0,0,0,0,0,0,0,0,0,0,0,0,0,0,0,0,0,0,0,0,0,0,0,0,0,0,0,0,0,0,0,0,0,0,0,0,0,0,0,0,0,0,0,0,0,0,0,0,0,0,0,0,0,0,0,0,0,0,0,0,0,0,0,0,0,0,0,0,0,0,0,0,0,0],"id":2,"left_children":[1,3,5,7,9,11,13,15,17,19,21,23,25,27,29,31,-1,33,35,37,39,41,43,45,47,49,51,53,55,57,59,-1,61,63,65,67,69,71,73,75,77,79,81,83,85,87,89,91,93,95,97,99,101,103,105,107,109,111,113,115,117,-1,-1,-1,-1,-1,-1,-1,-1,-1,-1,-1,-1,-1,-1,-1,-1,-1,-1,-1,-1,-1,-1,-1,-1,-1,-1,-1,-1,-1,-1,-1,-1,-1,-1,-1,-1,-1,-1,-1,-1,-1,-1,-1,-1,-1,-1,-1,-1,-1,-1,-1,-1,-1,-1,-1,-1,-1,-1],"loss_changes":[3.3092676E3,2.8224414E2,7.477593E2,3.5268555E1,7.787207E1,1.55625E2,2.847102E2,2.5212402E0,3.0720703E1,3.625586E1,3.6024414E1,6.2020508E1,5.0462402E1,1.14147705E2,1.6153992E2,2.0881348E0,0E0,8.446655E0,2.016748E1,2.1958984E1,9.012619E0,1.803418E1,1.3550415E1,3.4813232E1,5.0630127E1,2.8829346E1,4.0345825E1,6.1559326E1,3.715616E1,6.820856E1,7.68952E1,0E0,1.4584961E0,5.445693E0,8.817139E0,1.1842773E1,4.1916504E0,1.1111572E1,1.9355469E1,8.312653E0,1.0456142E1,1.6060059E1,1.5405762E1,5.327881E0,9.515747E0,1.9116821E1,1.0112381E1,1.6465332E1,2.088208E1,1.8028015E1,2.1182648E1,1.1508972E1,9.85257E0,3.5406006E1,3.080017E1,1.891394E1,1.9762758E1,3.209546E1,1.9799261E1,1.867331E1,3.502655E1,0E0,0E0,0E0,0E0,0E0,0E0,0E0,0E0,0E0,0E0,0E0,0E0,0E0,0E0,0E0,0E0,0E0,0E0,0E0,0E0,0E0,0E0,0E0,0E0,0E0,0E0,0E0,0E0,0E0,0E0,0E0,0E0,0E0,0E0,0E0,0E0,0E0,0E0,0E0,0E0,0E0,0E0,0E0,0E0,0E0,0E0,0E0,0E0,0E0,0E0,0E0,0E0,0E0,0E0,0E0,0E0,0E0,0E0],"parents":[2147483647,0,0,1,1,2,2,3,3,4,4,5,5,6,6,7,7,8,8,9,9,10,10,11,11,12,12,13,13,14,14,15,15,17,17,18,18,19,19,20,20,21,21,22,22,23,23,24,24,25,25,26,26,27,27,28,28,29,29,30,30,32,32,33,33,34,34,35,35,36,36,37,37,38,38,39,39,40,40,41,41,42,42,43,43,44,44,45,45,46,46,47,47,48,48,49,49,50,50,51,51,52,52,53,53,54,54,55,55,56,56,57,57,58,58,59,59,60,60],"right_children":[2,4,6,8,10,12,14,16,18,20,22,24,26,28,30,32,-1,34,36,38,40,42,44,46,48,50,52,54,56,58,60,-1,62,64,66,68,70,72,74,76,78,80,82,84,86,88,90,92,94,96,98,100,102,104,106,108,110,112,114,116,118,-1,-1,-1,-1,-1,-1,-1,-1,-1,-1,-1,-1,-1,-1,-1,-1,-1,-1,-1,-1,-1,-1,-1,-1,-1,-1,-1,-1,-1,-1,-1,-1,-1,-1,-1,-1,-1,-1,-1,-1,-1,-1,-1,-1,-1,-1,-1,-1,-1,-1,-1,-1,-1,-1,-1,-1,-1,-1],"split_conditions":[NaN,NaN,NaN,6.24E0,6.1E4,1.977E1,6E1,NaN,4.4E4,6E1,2.18E1,5.2E4,1.1512688E0,2.53E1,1.0074048E0,1.5E4,-3.2673877E-2,1.973E3,2.438E1,3.648E4,1.641E1,1.144E1,NaN,6E1,1.325E4,7.125E3,6E1,1.0328947E-1,NaN,2.62E1,1.649E1,6.4254655E-3,1.373E1,1.6E1,2.47E1,NaN,NaN,9.76E0,1.1E1,1E1,NaN,NaN,6E1,2.786E1,3.492E1,2.8E4,1.561E1,1.0074048E0,7.1E4,1.558E1,NaN,5E4,3.0625E4,NaN,4.275E3,4.075E3,5.6E3,1.186E1,NaN,1.999E1,6.1E4,3.827333E-1,3.5546714E-1,-2.5349182E-1,1.5548663E-1,3.134356E-1,2.577844E-1,3.3474806E-1,1.9485822E-1,2.936613E-1,2.3756157E-1,2.7714565E-1,2.1214756E-1,2.719348E-1,2.3599584E-1,2.5428316E-1,1.3937879E-1,1.3978525E-1,-2.0439981E-1,3.1814888E-1,2.7557936E-1,2.8223416E-1,2.1905161E-1,2.7676395E-1,2.3118131E-1,2.1394165E-1,-1.4134484E-2,1.3628477E-1,2.0442209E-1,1.3026531E-1,2.917818E-2,2.3871523E-1,2.8450155E-1,1.6898891E-1,2.2049432E-1,1.5734498E-1,2.593681E-1,1.2205491E-1,-5.264254E-2,1.7172489E-1,2.2492574E-1,1.2375863E-1,2.2382538E-1,1.0644813E-1,1.7113876E-1,2.57859E-1,1.7524587E-1,2.1867196E-1,1.02993585E-1,1.066267E-1,1.4949172E-2,9.850087E-2,3.1428006E-2,7.6942607E-3,-6.915783E-2,1.7979395E-1,1.1709981E-1,2.7229505E-2,9.823447E-2],"split_indices":[10,10,10,1,2,5,7,9,2,7,5,2,3,5,3,2,0,12,5,2,5,1,11,7,0,0,7,3,11,5,5,0,5,6,6,9,11,1,4,4,9,11,7,5,5,2,1,3,2,1,9,2,0,14,0,0,0,5,11,1,2,0,0,0,0,0,0,0,0,0,0,0,0,0,0,0,0,0,0,0,0,0,0,0,0,0,0,0,0,0,0,0,0,0,0,0,0,0,0,0,0,0,0,0,0,0,0,0,0,0,0,0,0,0,0,0,0,0,0],"split_type":[1,1,1,0,0,0,0,1,0,0,0,0,0,0,0,0,0,0,0,0,0,0,1,0,0,0,0,0,1,0,0,0,0,0,0,1,1,0,0,0,1,1,0,0,0,0,0,0,0,0,1,0,0,1,0,0,0,0,1,0,0,0,0,0,0,0,0,0,0,0,0,0,0,0,0,0,0,0,0,0,0,0,0,0,0,0,0,0,0,0,0,0,0,0,0,0,0,0,0,0,0,0,0,0,0,0,0,0,0,0,0,0,0,0,0,0,0,0,0],"sum_hessian":[6.1944504E4,2.6634318E4,3.5310188E4,9.154039E3,1.748028E4,1.6889031E4,1.8421154E4,1.4698132E3,7.6842256E3,8.458392E3,9.021888E3,9.955002E3,6.93403E3,9.117526E3,9.303629E3,1.4685728E3,1.2404251E0,1.2511783E3,6.4330474E3,7.9058667E3,5.525246E2,7.1402607E3,1.8816267E3,3.2384258E3,6.7165757E3,4.0586948E3,2.875335E3,6.9461357E3,2.1713901E3,4.7018354E3,4.6017935E3,1.4503304E0,1.4671224E3,1.0718918E1,1.2404595E3,5.7168804E3,7.161668E2,2.2123694E3,5.693497E3,2.4770718E2,3.048174E2,3.9680479E3,3.172213E3,1.2318252E3,6.498016E2,2.7279846E3,5.1044107E2,2.975471E3,3.7411047E3,1.0887516E3,2.969943E3,1.9327915E3,9.425434E2,3.3388442E3,3.6072917E3,1.1061425E3,1.0652477E3,3.4836736E3,1.2181617E3,1.7893223E3,2.812471E3,8.2460565E2,6.4251685E2,3.5794718E0,7.1394463E0,4.2847726E2,8.1198224E2,5.6570933E3,5.9787323E1,5.168077E2,1.9935913E2,2.8387302E2,1.9284963E3,3.21889E3,2.4746074E3,1.4866228E2,9.904491E1,2.975042E2,7.3132133E0,2.738964E3,1.2290837E3,2.7509211E3,4.2129175E2,8.501104E2,3.8171475E2,6.330222E2,1.6779371E1,4.5317932E2,2.2748054E3,3.9461584E2,1.1582523E2,1.6134686E3,1.3620023E3,9.814844E2,2.7596204E3,8.967686E2,1.9198299E2,2.906626E3,6.3317276E1,5.220258E2,1.4107657E3,8.423362E2,1.0020726E2,2.152196E3,1.1866482E3,4.7230167E2,3.13499E3,1.4703477E2,9.591076E2,2.903505E2,7.748972E2,8.487451E2,2.6349285E3,5.472432E2,6.709185E2,1.0542485E3,7.350738E2,9.399432E2,1.8725278E3],"tree_param":{"num_deleted":"0","num_feature":"15","num_nodes":"119","size_leaf_vector":"0"}},{"base_weights":[5.275262E-1,7.74833E-1,3.561357E-1,9.2564833E-1,6.9958884E-1,4.2395553E-1,1.3074873E-1,1.0388681E0,8.79987E-1,7.6820654E-1,6.2845325E-1,5.3299254E-1,3.4645984E-1,2.012638E-1,-3.32622E-2,8.7884426E-1,1.061382E0,7.941403E-1,9.374418E-1,8.349226E-1,7.005235E-1,6.8497586E-1,5.4242706E-1,4.3832746E-1,5.9145606E-1,3.980789E-1,2.3222683E-1,6.7368406E-1,1.8171807E-1,3.699425E-2,-1.8298696E-1,9.130651E-1,4.679505E-1,1.1309465E0,1.0182917E0,8.7415296E-1,7.3504347E-1,9.8260564E-1,8.506356E-1,8.881966E-1,7.6867706E-1,6.0715246E-1,7.488929E-1,7.077666E-1,5.267135E-1,5.6444067E-1,2.0549503E-1,4.8389542E-1,2.225224E-1,6.530762E-1,4.8241395E-1,3.3366376E-1,5.1228404E-1,2.955104E-1,9.861866E-2,7.1356225E-1,1.8043347E-2,5.46767E-1,1.578351E-1,1.4363265E-2,1.3328592E0,1.0563549E0,-1.9369504E-1,1.3697937E-1,2.8432524E-1,2.2553064E-1,-1.0436304E-1,1.3132681E-1,3.4029713E-1,3.0946803E-1,1.8714765E-1,2.6853052E-1,1.5043874E-1,6.0041726E-2,2.2588386E-1,1.5927278E-1,2.96345E-1,2.1260135E-1,2.6471585E-1,2.568561E-1,2.8989726E-1,2.3945309E-1,1.781963E-1,2.1374078E-1,1.5786387E-1,2.4256511E-1,1.9665612E-1,2.0021419E-1,2.3840249E-1,2.2219135E-1,1.28059E-1,1.8794678E-1,1.419497E-1,-7.311087E-2,8.013957E-2,2.0250173E-1,1.3396141E-1,-9.53056E-2,7.31253E-2,1.3475454E-1,2.0488043E-1,1.06645845E-1,1.6936433E-1,1.0456044E-1,1.2592359E-3,3.2902535E-2,1.6002095E-1,1.18304975E-1,6.119476E-2,1.83863E-1,2.2288067E-2,2.3499867E-1,6.909319E-2,1.79663E-1,-2.1197423E-1,1.2610932E-1,2.2731666E-1,2.370269E-2,8.774589E-2,-2.5667375E-2,3.771291E-2,7.921607E-2,4.2445597E-1,3.9015007E-1,-9.688733E-3,-1.4918254E-3,-7.574563E-2],"categories":[2,3,4,5,6,1,2,3,4,5,6,0,1,4,5,6,1,2,3,1,3,5,6,0,3,5,10,11,12,1,3,3,8,10,11,12,13,3,5,8,10,11,12,2,2],"categories_nodes":[0,1,2,9,10,14,15,26,35,55,56,61],"categories_segments":[0,5,11,16,19,21,23,29,31,37,43,44],"categories_sizes":[5,6,5,3,2,2,6,2,6,6,1,1],"default_left":[0,0,0,0,0,0,0,0,0,0,0,0,0,0,0,0,0,0,0,0,0,0,0,0,0,0,0,0,0,0,0,0,0,0,0,0,0,0,0,0,0,0,0,0,0,0,0,0,0,0,0,0,0,0,0,0,0,0,0,0,0,0,0,0,0,0,0,0,0,0,0,0,0,0,0,0,0,0,0,0,0,0,0,0,0,0,0,0,0,0,0,0,0,0,0,0,0,0,0,0,0,0,0,0,0,0,0,0,0,0,0,0,0,0,0,0,0,0,0,0,0,0,0,0,0,0,0],"id":3,"left_children":[1,3,5,7,9,11,13,15,17,19,21,23,25,27,29,31,33,35,37,39,41,43,45,47,49,51,53,55,57,59,61,63,65,67,69,71,73,75,77,79,81,83,85,87,89,91,93,95,97,99,101,103,105,107,109,111,113,115,117,119,121,123,125,-1,-1,-1,-1,-1,-1,-1,-1,-1,-1,-1,-1,-1,-1,-1,-1,-1,-1,-1,-1,-1,-1,-1,-1,-1,-1,-1,-1,-1,-1,-1,-1,-1,-1,-1,-1,-1,-1,-1,-1,-1,-1,-1,-1,-1,-1,-1,-1,-1,-1,-1,-1,-1,-1,-1,-1,-1,-1,-1,-1,-1,-1,-1,-1],"loss_changes":[2.4246982E3,2.6510254E2,5.1651465E2,3.93667E1,7.579834E1,2.1931934E2,9.042609E1,7.11499E0,2.6674316E1,3.5313965E1,3.69646E1,5.945996E1,8.946326E1,5.036467E1,2.4743149E1,3.5284424E0,4.7038574E0,9.927246E0,1.2198242E1,1.3428223E1,1.7396606E1,1.6327393E1,2.2501953E1,4.044275E1,4.448755E1,7.677356E1,3.995845E1,5.657074E0,4.5701096E1,4.694357E1,1.0173735E1,3.6623383E0,5.744475E0,1.2314453E0,5.72229E0,6.923889E0,1.2221802E1,4.60791E0,4.536682E0,4.6988525E0,8.748657E0,1.1168152E1,1.3950195E1,1.3664673E1,1.2216736E1,1.5911621E1,5.286629E0,2.3999756E1,8.342995E0,2.5612793E1,2.4937866E1,3.277771E1,3.1997253E1,2.8947937E1,1.8988422E1,6.7108765E0,6.0881786E0,8.27005E0,5.2311424E1,1.7532755E1,2.0342178E0,1.7934957E0,8.271307E0,0E0,0E0,0E0,0E0,0E0,0E0,0E0,0E0,0E0,0E0,0E0,0E0,0E0,0E0,0E0,0E0,0E0,0E0,0E0,0E0,0E0,0E0,0E0,0E0,0E0,0E0,0E0,0E0,0E0,0E0,0E0,0E0,0E0,0E0,0E0,0E0,0E0,0E0,0E0,0E0,0E0,0E0,0E0,0E0,0E0,0E0,0E0,0E0,0E0,0E0,0E0,0E0,0E0,0E0,0E0,0E0,0E0,0E0,0E0,0E0,0E0,0E0,0E0,0E0],"parents":[2147483647,0,0,1,1,2,2,3,3,4,4,5,5,6,6,7,7,8,8,9,9,10,10,11,11,12,12,13,13,14,14,15,15,16,16,17,17,18,18,19,19,20,20,21,21,22,22,23,23,24,24,25,25,26,26,27,27,28,28,29,29,30,30,31,31,32,32,33,33,34,34,35,35,36,36,37,37,38,38,39,39,40,40,41,41,42,42,43,43,44,44,45,45,46,46,47,47,48,48,49,49,50,50,51,51,52,52,53,53,54,54,55,55,56,56,57,57,58,58,59,59,60,60,61,61,62,62],"right_children":[2,4,6,8,10,12,14,16,18,20,22,24,26,28,30,32,34,36,38,40,42,44,46,48,50,52,54,56,58,60,62,64,66,68,70,72,74,76,78,80,82,84,86,88,90,92,94,96,98,100,102,104,106,108,110,112,114,116,118,120,122,124,126,-1,-1,-1,-1,-1,-1,-1,-1,-1,-1,-1,-1,-1,-1,-1,-1,-1,-1,-1,-1,-1,-1,-1,-1,-1,-1,-1,-1,-1,-1,-1,-1,-1,-1,-1,-1,-1,-1,-1,-1,-1,-1,-1,-1,-1,-1,-1,-1,-1,-1,-1,-1,-1,-1,-1,-1,-1,-1,-1,-1,-1,-1,-1,-1],"split_conditions":[NaN,NaN,NaN,6.68E0,1.674E1,1.623E1,2.426E1,4.25E4,6.2E4,NaN,NaN,1.0328947E-1,6E1,1.799E1,NaN,NaN,2.13E1,1.45E1,1.717E1,1.144E1,4.85E4,6E1,6E1,6E1,6E1,1.0074048E0,NaN,1.5E5,4.075E3,2.343E1,2E3,1.983E3,1.1E1,1.971E3,2.3E1,NaN,2.2E4,1.975E3,7.221235E-1,1.01E5,6E1,7E3,1.43E4,7.6E4,3.45E1,2.367E1,1.989E3,4.5E3,1.986E3,3.877883E4,7.1E4,3.492E1,3.05E4,1.58E1,6E0,NaN,NaN,3.0842176E-1,8.2E4,2.031E1,1.989E3,NaN,2.343E1,1.3697937E-1,2.8432524E-1,2.2553064E-1,-1.0436304E-1,1.3132681E-1,3.4029713E-1,3.0946803E-1,1.8714765E-1,2.6853052E-1,1.5043874E-1,6.0041726E-2,2.2588386E-1,1.5927278E-1,2.96345E-1,2.1260135E-1,2.6471585E-1,2.568561E-1,2.8989726E-1,2.3945309E-1,1.781963E-1,2.1374078E-1,1.5786387E-1,2.4256511E-1,1.9665612E-1,2.0021419E-1,2.3840249E-1,2.2219135E-1,1.28059E-1,1.8794678E-1,1.419497E-1,-7.311087E-2,8.013957E-2,2.0250173E-1,1.3396141E-1,-9.53056E-2,7.31253E-2,1.3475454E-1,2.0488043E-1,1.06645845E-1,1.6936433E-1,1.0456044E-1,1.2592359E-3,3.2902535E-2,1.6002095E-1,1.18304975E-1,6.119476E-2,1.83863E-1,2.2288067E-2,2.3499867E-1,6.909319E-2,1.79663E-1,-2.1197423E-1,1.2610932E-1,2.2731666E-1,2.370269E-2,8.774589E-2,-2.5667375E-2,3.771291E-2,7.921607E-2,4.2445597E-1,3.9015007E-1,-9.688733E-3,-1.4918254E-3,-7.574563E-2],"split_indices":[10,10,10,1,5,5,5,2,2,11,11,3,7,1,10,9,6,5,5,1,2,7,7,7,7,3,11,2,0,1,0,12,4,12,4,9,2,12,3,2,7,0,0,2,6,5,12,0,12,2,2,5,2,1,4,9,9,3,2,1,12,11,1,0,0,0,0,0,0,0,0,0,0,0,0,0,0,0,0,0,0,0,0,0,0,0,0,0,0,0,0,0,0,0,0,0,0,0,0,0,0,0,0,0,0,0,0,0,0,0,0,0,0,0,0,0,0,0,0,0,0,0,0,0,0,0,0],"split_type":[1,1,1,0,0,0,0,0,0,1,1,0,0,0,1,1,0,0,0,0,0,0,0,0,0,0,1,0,0,0,0,0,0,0,0,1,0,0,0,0,0,0,0,0,0,0,0,0,0,0,0,0,0,0,0,1,1,0,0,0,0,1,0,0,0,0,0,0,0,0,0,0,0,0,0,0,0,0,0,0,0,0,0,0,0,0,0,0,0,0,0,0,0,0,0,0,0,0,0,0,0,0,0,0,0,0,0,0,0,0,0,0,0,0,0,0,0,0,0,0,0,0,0,0,0,0,0],"sum_hessian":[5.7210594E4,2.341727E4,3.3793324E4,7.7907075E3,1.5626562E4,2.5976123E4,7.8172017E3,2.2327476E3,5.55796E3,7.949061E3,7.6775005E3,1.0789432E4,1.5186691E4,5.4666406E3,2.3505615E3,2.803234E2,1.9524241E3,2.2343323E3,3.3236277E3,3.9974165E3,3.9516443E3,4.62906E3,3.0484402E3,4.122578E3,6.6668535E3,1.0458343E4,4.7283486E3,2.1585915E2,5.2507812E3,1.6003639E3,7.501976E2,2.5764374E2,2.2679682E1,7.3714453E2,1.2152795E3,9.4333496E2,1.2909973E3,2.179402E3,1.1442255E3,2.208754E3,1.7886627E3,1.353137E3,2.5985073E3,4.043325E3,5.857351E2,2.8608499E3,1.8759029E2,3.4028193E3,7.197589E2,4.2564985E3,2.410355E3,6.6893E3,3.769043E3,3.2077734E3,1.520575E3,2.0339938E2,1.24597645E1,3.2108792E2,4.9296934E3,1.5738885E3,2.6475304E1,5.589801E0,7.446078E2,1.9195337E1,2.384484E2,1.6884314E1,5.795367E0,4.2071433E0,7.329374E2,1.1741698E3,4.11098E1,8.918054E2,5.1529533E1,4.22035E1,1.2487938E3,2.6029327E1,2.1533728E3,2.1339618E2,9.3082935E2,1.5752987E3,6.334552E2,1.5271952E3,2.6146756E2,5.84629E2,7.6850793E2,1.5808274E3,1.0176799E3,2.7664458E3,1.2768792E3,1.8435204E2,4.0138306E2,1.6996011E3,1.1612489E3,2.2278067E1,1.6531223E2,5.5361346E2,2.8492058E3,2.668695E1,6.9307196E2,5.457558E2,3.710743E3,9.490469E2,1.4613081E3,6.400351E3,2.8894888E2,1.881623E2,3.5808806E3,1.5406938E3,1.6670796E3,6.758398E1,1.452991E3,1.771967E2,2.6202682E1,7.012403E0,5.4473615E0,2.0265271E2,1.1843522E2,3.1104133E3,1.81928E3,8.296239E2,7.4426465E2,2.187056E0,2.4288246E1,4.4068947E0,1.1829062E0,1.7712042E2,5.6748737E2],"tree_param":{"num_deleted":"0","num_feature":"15","num_nodes":"127","size_leaf_vector":"0"}},{"base_weights":[4.0648082E-1,6.3338774E-1,2.624901E-1,8.228786E-1,5.7040244E-1,3.7086138E-1,1.6967362E-1,9.792138E-1,7.8502345E-1,5.0085074E-1,6.3672024E-1,4.284877E-1,2.7346143E-1,2.0318253E-1,-3.1299945E-2,9.8975533E-1,5.943516E-1,7.0160156E-1,8.540403E-1,4.3963137E-1,5.777241E-1,7.191369E-1,5.759514E-1,2.9597554E-1,4.6447125E-1,2.3079316E-1,3.8816038E-1,1.3341187E-1,2.9833093E-1,1.9137704E-1,-8.1511416E-2,1.0066226E0,8.07126E-1,8.494358E-1,2.6526758E-2,7.9476815E-1,6.236142E-1,9.3903244E-1,8.053535E-1,4.6054584E-1,2.1869783E-1,6.1542434E-1,4.608807E-1,6.6636133E-1,8.082954E-1,6.083404E-1,4.6208206E-1,3.956785E-1,1.2674876E-1,5.4678136E-1,3.7845632E-1,2.9140162E-1,2.516589E-3,5.018397E-1,1.0422394E-1,3.1487304E-1,7.407673E-2,4.5085865E-1,2.412813E-1,4.0073994E-1,6.0714435E-2,4.9318534E-1,-9.900799E-2,-8.209394E-2,3.0255333E-1,1.0266354E-1,2.7933204E-1,2.323613E-2,2.7691212E-1,-9.244533E-2,2.4915688E-1,2.4471566E-1,5.7425056E-2,1.574543E-1,2.1165255E-1,2.8623146E-1,1.4989915E-1,2.5436684E-1,2.1799266E-1,7.6979995E-2,1.4518228E-1,1.5590812E-1,4.6026763E-2,1.9350757E-1,1.1550836E-1,1.433536E-1,-8.65957E-3,2.1762542E-1,1.6984445E-1,2.5285038E-1,1.8971308E-1,1.9541632E-1,1.5208401E-1,1.6653635E-1,1.1766859E-1,2.0416021E-2,1.3189496E-1,6.757901E-2,3.3049183E-3,2.1878679E-1,1.5614787E-1,7.4876636E-2,1.3300383E-1,7.1721755E-2,1.5497307E-1,-8.499918E-3,1.6437922E-1,1.1008145E-1,1.9042769E-1,8.987429E-3,2.1841379E-1,2.6419943E-2,1.0532945E-1,-1.5255268E-2,3.8067155E-2,2.2563693E-1,1.2530717E-1,4.9098358E-2,1.0511844E-1,2.9283208E-1,1.0455172E-1,4.7999702E-2,-1.3169879E-1,-9.26734E-2,1.794889E-1,-4.3975364E-2,4.053475E-2],"categories":[2,3,4,5,6,0,1,3,4,5,6,0,1,2,5,6,3,5,7,10,11,0,0,2,3,6,7,9,10,11,10,11,12,3,7,10,11,13,3,4,7,8,9,10,11,12,1,3],"categories_nodes":[0,2,6,7,9,14,35,37,41,45],"categories_segments":[0,5,11,16,21,22,30,33,38,46],"categories_sizes":[5,6,5,5,1,8,3,5,8,2],"default_left":[0,0,0,0,0,0,0,0,0,0,0,0,0,0,0,0,0,0,0,0,0,0,0,0,0,0,0,0,0,0,0,0,0,0,0,0,0,0,0,0,0,0,0,0,0,0,0,0,0,0,0,0,0,0,0,0,0,0,0,0,0,0,0,0,0,0,0,0,0,0,0,0,0,0,0,0,0,0,0,0,0,0,0,0,0,0,0,0,0,0,0,0,0,0,0,0,0,0,0,0,0,0,0,0,0,0,0,0,0,0,0,0,0,0,0,0,0,0,0,0,0,0,0,0,0,0,0],"id":4,"left_children":[1,3,5,7,9,11,13,15,17,19,21,23,25,27,29,31,33,35,37,39,41,43,45,47,49,51,53,55,57,59,61,63,65,67,69,71,73,75,77,79,81,83,85,87,89,91,93,95,97,99,101,103,105,107,109,111,113,115,117,119,121,123,125,-1,-1,-1,-1,-1,-1,-1,-1,-1,-1,-1,-1,-1,-1,-1,-1,-1,-1,-1,-1,-1,-1,-1,-1,-1,-1,-1,-1,-1,-1,-1,-1,-1,-1,-1,-1,-1,-1,-1,-1,-1,-1,-1,-1,-1,-1,-1,-1,-1,-1,-1,-1,-1,-1,-1,-1,-1,-1,-1,-1,-1,-1,-1,-1],"loss_changes":[1.7345254E3,2.455293E2,3.2667236E2,2.964795E1,7.104883E1,8.3990234E1,1.17852234E2,3.460144E0,2.325293E1,3.5309814E1,3.9236084E1,4.4746216E1,2.718454E1,9.9528625E1,2.7985683E1,2.1748657E0,4.193363E0,1.3173218E1,8.605957E0,1.9356812E1,1.4459595E1,1.5252197E1,1.654358E1,3.3913574E1,5.219153E1,5.623207E1,4.867337E1,9.316562E1,5.509845E1,1.2575539E1,2.0581556E1,2.4126587E0,4.698303E0,1.0678873E0,2.9614341E0,1.0633362E1,7.950165E0,4.9403076E0,4.223633E0,1.8225769E1,7.1124077E0,1.6988892E1,6.8303833E0,1.2099182E1,7.020447E0,1.5157959E1,6.374878E0,1.8211304E1,8.522986E0,1.7754883E1,3.0179749E1,3.7720306E1,1.4380124E1,1.9091766E1,2.0031734E1,1.748906E1,4.304875E1,1.693155E1,3.9067596E1,4.9737606E0,1.419901E1,5.2854156E0,2.2102457E1,0E0,0E0,0E0,0E0,0E0,0E0,0E0,0E0,0E0,0E0,0E0,0E0,0E0,0E0,0E0,0E0,0E0,0E0,0E0,0E0,0E0,0E0,0E0,0E0,0E0,0E0,0E0,0E0,0E0,0E0,0E0,0E0,0E0,0E0,0E0,0E0,0E0,0E0,0E0,0E0,0E0,0E0,0E0,0E0,0E0,0E0,0E0,0E0,0E0,0E0,0E0,0E0,0E0,0E0,0E0,0E0,0E0,0E0,0E0,0E0,0E0,0E0,0E0,0E0],"parents":[2147483647,0,0,1,1,2,2,3,3,4,4,5,5,6,6,7,7,8,8,9,9,10,10,11,11,12,12,13,13,14,14,15,15,16,16,17,17,18,18,19,19,20,20,21,21,22,22,23,23,24,24,25,25,26,26,27,27,28,28,29,29,30,30,31,31,32,32,33,33,34,34,35,35,36,36,37,37,38,38,39,39,40,40,41,41,42,42,43,43,44,44,45,45,46,46,47,47,48,48,49,49,50,50,51,51,52,52,53,53,54,54,55,55,56,56,57,57,58,58,59,59,60,60,61,61,62,62],"right_children":[2,4,6,8,10,12,14,16,18,20,22,24,26,28,30,32,34,36,38,40,42,44,46,48,50,52,54,56,58,60,62,64,66,68,70,72,74,76,78,80,82,84,86,88,90,92,94,96,98,100,102,104,106,108,110,112,114,116,118,120,122,124,126,-1,-1,-1,-1,-1,-1,-1,-1,-1,-1,-1,-1,-1,-1,-1,-1,-1,-1,-1,-1,-1,-1,-1,-1,-1,-1,-1,-1,-1,-1,-1,-1,-1,-1,-1,-1,-1,-1,-1,-1,-1,-1,-1,-1,-1,-1,-1,-1,-1,-1,-1,-1,-1,-1,-1,-1,-1,-1,-1,-1,-1,-1,-1,-1],"split_conditions":[NaN,8.18E0,NaN,6.24E0,6.1E4,2.1E1,NaN,NaN,6.7E4,NaN,1.373E1,4.25E4,1.51E1,6.6E4,NaN,5.72E1,1.312E1,3.1E1,1.111E1,6E1,1.3E1,3E0,2.476E1,9.1E3,1.475E4,1.449E1,6E1,6.85E3,1.43E4,5.31E1,1.997E1,1.5E4,6.3E4,5.202312E-2,8.1E4,NaN,1.999E3,NaN,5.45E1,2.76E4,1.66E1,NaN,1.84E4,1.56E4,6E1,NaN,1.996E3,2.1E4,1.446E1,4.275E3,7.1E4,1.43E1,6E0,4.85E4,1E5,2.2E4,4.0413E4,3.8E3,2.2310433E0,4.11E0,2.786E1,4E0,3.1494174E0,-8.209394E-2,3.0255333E-1,1.0266354E-1,2.7933204E-1,2.323613E-2,2.7691212E-1,-9.244533E-2,2.4915688E-1,2.4471566E-1,5.7425056E-2,1.574543E-1,2.1165255E-1,2.8623146E-1,1.4989915E-1,2.5436684E-1,2.1799266E-1,7.6979995E-2,1.4518228E-1,1.5590812E-1,4.6026763E-2,1.9350757E-1,1.1550836E-1,1.433536E-1,-8.65957E-3,2.1762542E-1,1.6984445E-1,2.5285038E-1,1.8971308E-1,1.9541632E-1,1.5208401E-1,1.6653635E-1,1.1766859E-1,2.0416021E-2,1.3189496E-1,6.757901E-2,3.3049183E-3,2.1878679E-1,1.5614787E-1,7.4876636E-2,1.3300383E-1,7.1721755E-2,1.5497307E-1,-8.499918E-3,1.6437922E-1,1.1008145E-1,1.9042769E-1,8.987429E-3,2.1841379E-1,2.6419943E-2,1.0532945E-1,-1.5255268E-2,3.8067155E-2,2.2563693E-1,1.2530717E-1,4.9098358E-2,1.0511844E-1,2.9283208E-1,1.0455172E-1,4.7999702E-2,-1.3169879E-1,-9.26734E-2,1.794889E-1,-4.3975364E-2,4.053475E-2],"split_indices":[10,1,10,1,2,5,10,9,2,14,5,2,1,2,9,6,5,6,5,7,4,3,5,0,0,1,7,0,0,6,1,2,2,3,2,9,12,9,6,2,6,9,0,0,7,11,12,2,1,0,2,1,3,2,2,2,2,0,3,5,5,4,3,0,0,0,0,0,0,0,0,0,0,0,0,0,0,0,0,0,0,0,0,0,0,0,0,0,0,0,0,0,0,0,0,0,0,0,0,0,0,0,0,0,0,0,0,0,0,0,0,0,0,0,0,0,0,0,0,0,0,0,0,0,0,0,0],"split_type":[1,0,1,0,0,0,1,1,0,1,0,0,0,0,1,0,0,0,0,0,0,0,0,0,0,0,0,0,0,0,0,0,0,0,0,1,0,1,0,0,0,1,0,0,0,1,0,0,0,0,0,0,0,0,0,0,0,0,0,0,0,0,0,0,0,0,0,0,0,0,0,0,0,0,0,0,0,0,0,0,0,0,0,0,0,0,0,0,0,0,0,0,0,0,0,0,0,0,0,0,0,0,0,0,0,0,0,0,0,0,0,0,0,0,0,0,0,0,0,0,0,0,0,0,0,0,0],"sum_hessian":[5.309234E4,2.0610309E4,3.2482033E4,5.138651E3,1.5471659E4,1.498396E4,1.7498072E4,9.968725E2,4.1417783E3,7.555877E3,7.9157817E3,9.411992E3,5.5719673E3,1.4997486E4,2.5005867E3,9.6876587E2,2.8106632E1,1.8802506E3,2.2615276E3,4.209942E3,3.3459353E3,3.354911E3,4.5608706E3,2.0119742E3,7.400018E3,4.0633896E3,1.5085774E3,8.654034E3,6.3434517E3,4.5959058E2,2.0409961E3,8.8272736E2,8.60385E1,1.9051962E1,9.054669E0,8.5256024E2,1.0276903E3,8.170037E2,1.4445239E3,3.8448848E3,3.6505698E2,2.5264836E3,8.1945154E2,2.1127717E3,1.2421394E3,3.5474834E3,1.01338745E3,1.2652134E3,7.467609E2,3.7787083E3,3.62131E3,3.2106667E3,8.527229E2,1.0767235E3,4.3185394E2,2.131398E3,6.5226367E3,1.7248895E3,4.618562E3,1.7581393E2,2.837766E2,5.9498722E1,1.9814973E3,1.088245E0,8.816391E2,1.8905432E1,6.7133064E1,1.8370316E0,1.721493E1,6.828789E0,2.2258806E0,8.236094E2,2.895083E1,4.6921475E2,5.5847565E2,7.887736E2,2.823005E1,9.314124E2,5.131115E2,3.9689865E2,3.447986E3,6.3818233E1,3.0123874E2,2.237247E3,2.8923663E2,7.9203986E2,2.741168E1,1.3254379E3,7.873338E2,1.0351173E3,2.0702208E2,2.4864304E3,1.061053E3,4.3159326E2,5.817942E2,1.5001537E2,1.115198E3,4.0287558E2,3.4388538E2,4.723912E2,3.306317E3,1.2144081E3,2.4069019E3,2.606903E3,6.0376355E2,8.079706E2,4.475228E1,5.3624347E2,5.4048004E2,3.8684784E2,4.5006107E1,2.940118E2,1.8373862E3,1.9381361E3,4.5845005E3,1.6892012E2,1.5559694E3,2.700211E3,1.9183511E3,1.3160639E1,1.626533E2,2.3730724E2,4.646938E1,6.668999E0,5.2829723E1,1.6471517E3,3.343456E2],"tree_param":{"num_deleted":"0","num_feature":"15","num_nodes":"127","size_leaf_vector":"0"}},{"base_weights":[3.0993342E-1,5.427871E-1,2.0301844E-1,7.061368E-1,4.7984448E-1,2.8593794E-1,1.214932E-1,8.856611E-1,6.646064E-1,5.5261004E-1,4.0552184E-1,3.991427E-1,2.4868263E-1,2.6777378E-1,8.33427E-2,7.3205644E-1,9.252394E-1,4.154884E-1,6.934573E-1,6.012289E-1,4.5404425E-1,4.4255796E-1,2.2976719E-1,4.5558146E-1,2.9335424E-1,2.8293338E-1,1.413992E-1,2.1754067E-1,4.220953E-1,1.480118E-1,-1.1686884E-3,7.504144E-1,-5.1404274E-1,9.376923E-1,4.8945296E-1,1.7544863E-1,5.534477E-1,7.525759E-1,5.906837E-1,6.0816276E-1,-5.7248134E-2,4.769305E-1,3.0517164E-1,2.8902516E-1,4.7518864E-1,2.6759475E-1,-1.2899996E-1,3.8683724E-1,5.209673E-1,1.7189535E-1,3.6311552E-1,1.6325338E-1,3.3040875E-1,3.3235344E-1,1.0219122E-1,3.3100542E-1,1.5766059E-1,-5.274818E-1,4.336675E-1,1.1905577E-1,2.9768774E-1,5.8461934E-1,-1.2827752E-2,2.3596926E-1,6.4655E-2,3.3681404E-2,-2.6922706E-1,2.8301764E-1,9.54229E-2,2.7882302E-1,1.8895068E-3,1.3981324E-1,-2.4084302E-3,2.3359288E-1,1.12651326E-1,2.2970088E-1,4.9067184E-2,1.921115E-1,1.450303E-1,2.082885E-1,1.6833174E-1,5.3756915E-2,-3.26036E-1,-1.792222E-1,1.4417508E-1,1.6621904E-1,3.6625966E-2,9.782833E-2,-8.197664E-2,1.475398E-1,3.917095E-2,5.6136984E-2,1.1928248E-1,4.696455E-2,-1.6370207E-1,1.2792926E-1,6.5195575E-2,2.107247E-1,1.41828E-1,2.3031008E-1,4.3206923E-2,1.4019115E-1,7.5295724E-2,8.385037E-2,2.6038509E-2,8.9624256E-2,1.3568376E-1,1.0483035E-1,-2.8276035E-1,-2.409892E-2,4.0665593E-2,7.206402E-2,1.4605834E-1,5.605765E-2,-2.0462204E-2,-4.1625958E-2,-4.1067493E-1,1.754082E-1,1.11987166E-1,5.270774E-2,7.802053E-3,1.3360909E-1,7.509071E-2,-2.006837E-1,1.8675299E-1,2.5183449E-2,-2.0844705E-2],"categories":[0,3,4,5,6,1,2,3,1,3,11,0,1,2,3,3,7,10,3,11,12,1,4,7,8,11,12,0,3,6,10,11,12,1,2,3,7,8,10,11,2,3,4,5,7,8,10,11,12,13],"categories_nodes":[2,4,11,14,19,29,32,33,37,38,43,56,58,60],"categories_segments":[0,5,8,9,10,11,12,15,18,21,22,27,33,40],"categories_sizes":[5,3,1,1,1,1,3,3,3,1,5,6,7,10],"default_left":[0,0,0,0,0,0,0,0,0,0,0,0,0,0,0,0,0,0,0,0,0,0,0,0,0,0,0,0,0,0,0,0,0,0,0,0,0,0,0,0,0,0,0,0,0,0,0,0,0,0,0,0,0,0,0,0,0,0,0,0,0,0,0,0,0,0,0,0,0,0,0,0,0,0,0,0,0,0,0,0,0,0,0,0,0,0,0,0,0,0,0,0,0,0,0,0,0,0,0,0,0,0,0,0,0,0,0,0,0,0,0,0,0,0,0,0,0,0,0,0,0,0,0,0,0,0,0],"id":5,"left_children":[1,3,5,7,9,11,13,15,17,19,21,23,25,27,29,31,33,35,37,39,41,43,45,47,49,51,53,55,57,59,61,63,65,67,69,71,73,75,77,79,81,83,85,87,89,91,93,95,97,99,101,103,105,107,109,111,113,115,117,119,121,123,125,-1,-1,-1,-1,-1,-1,-1,-1,-1,-1,-1,-1,-1,-1,-1,-1,-1,-1,-1,-1,-1,-1,-1,-1,-1,-1,-1,-1,-1,-1,-1,-1,-1,-1,-1,-1,-1,-1,-1,-1,-1,-1,-1,-1,-1,-1,-1,-1,-1,-1,-1,-1,-1,-1,-1,-1,-1,-1,-1,-1,-1,-1,-1,-1],"loss_changes":[1.23873E3,1.6064941E2,2.3051392E2,3.18667E1,6.091919E1,7.120581E1,9.595778E1,4.276306E0,2.5149536E1,2.709021E1,3.6329407E1,2.4851257E1,4.6712402E1,2.7483597E1,7.456006E1,4.31411E0,3.036438E0,1.2150417E1,1.8818237E1,1.7479492E1,6.2947693E0,2.3016418E1,1.3282841E1,1.2056152E1,1.2296974E1,5.47381E1,2.3033276E1,1.8195168E1,9.816193E0,3.346016E1,4.040505E1,3.110695E0,8.4191215E-1,1.9076538E0,4.242545E0,7.2786837E0,9.100258E0,1.5369141E1,5.8848267E0,1.4935303E1,1.0108751E1,6.7101746E0,1.1536095E1,1.7026955E1,2.1745422E1,9.168232E0,1.1244104E1,8.855942E0,1.1868164E1,8.758079E0,1.0696228E1,2.4336937E1,2.6502441E1,1.1748955E1,1.5584198E1,1.2998161E1,1.1618923E1,3.3936086E0,7.6467133E0,3.413127E1,8.650459E0,5.900131E0,3.1807701E1,0E0,0E0,0E0,0E0,0E0,0E0,0E0,0E0,0E0,0E0,0E0,0E0,0E0,0E0,0E0,0E0,0E0,0E0,0E0,0E0,0E0,0E0,0E0,0E0,0E0,0E0,0E0,0E0,0E0,0E0,0E0,0E0,0E0,0E0,0E0,0E0,0E0,0E0,0E0,0E0,0E0,0E0,0E0,0E0,0E0,0E0,0E0,0E0,0E0,0E0,0E0,0E0,0E0,0E0,0E0,0E0,0E0,0E0,0E0,0E0,0E0,0E0,0E0,0E0],"parents":[2147483647,0,0,1,1,2,2,3,3,4,4,5,5,6,6,7,7,8,8,9,9,10,10,11,11,12,12,13,13,14,14,15,15,16,16,17,17,18,18,19,19,20,20,21,21,22,22,23,23,24,24,25,25,26,26,27,27,28,28,29,29,30,30,31,31,32,32,33,33,34,34,35,35,36,36,37,37,38,38,39,39,40,40,41,41,42,42,43,43,44,44,45,45,46,46,47,47,48,48,49,49,50,50,51,51,52,52,53,53,54,54,55,55,56,56,57,57,58,58,59,59,60,60,61,61,62,62],"right_children":[2,4,6,8,10,12,14,16,18,20,22,24,26,28,30,32,34,36,38,40,42,44,46,48,50,52,54,56,58,60,62,64,66,68,70,72,74,76,78,80,82,84,86,88,90,92,94,96,98,100,102,104,106,108,110,112,114,116,118,120,122,124,126,-1,-1,-1,-1,-1,-1,-1,-1,-1,-1,-1,-1,-1,-1,-1,-1,-1,-1,-1,-1,-1,-1,-1,-1,-1,-1,-1,-1,-1,-1,-1,-1,-1,-1,-1,-1,-1,-1,-1,-1,-1,-1,-1,-1,-1,-1,-1,-1,-1,-1,-1,-1,-1,-1,-1,-1,-1,-1,-1,-1,-1,-1,-1,-1],"split_conditions":[1.229E1,8.18E0,NaN,6.24E0,NaN,1.215E1,1.186E1,5.2E4,3.7E4,2.024E1,2.463E1,NaN,6E1,2.3901045E0,NaN,1E0,2.4E1,1.998E3,1.744E1,NaN,6E1,3.6E4,1E0,6.3E4,1.0328947E-1,4.0413E4,3.45E1,9.1E3,2.76E4,NaN,1.559E1,5.48E1,NaN,NaN,1.96E1,8E0,1.467E1,NaN,NaN,9.99E0,6E1,2E4,4.08E1,NaN,8.87E1,2.002E3,4.9E1,1.38E4,8.2E3,3E3,1.5E4,6.5E3,1.51E1,1.727E1,4.6E4,5.5E4,NaN,6.3E1,NaN,2.001E3,NaN,2E4,1.025E4,2.3596926E-1,6.4655E-2,3.3681404E-2,-2.6922706E-1,2.8301764E-1,9.54229E-2,2.7882302E-1,1.8895068E-3,1.3981324E-1,-2.4084302E-3,2.3359288E-1,1.12651326E-1,2.2970088E-1,4.9067184E-2,1.921115E-1,1.450303E-1,2.082885E-1,1.6833174E-1,5.3756915E-2,-3.26036E-1,-1.792222E-1,1.4417508E-1,1.6621904E-1,3.6625966E-2,9.782833E-2,-8.197664E-2,1.475398E-1,3.917095E-2,5.6136984E-2,1.1928248E-1,4.696455E-2,-1.6370207E-1,1.2792926E-1,6.5195575E-2,2.107247E-1,1.41828E-1,2.3031008E-1,4.3206923E-2,1.4019115E-1,7.5295724E-2,8.385037E-2,2.6038509E-2,8.9624256E-2,1.3568376E-1,1.0483035E-1,-2.8276035E-1,-2.409892E-2,4.0665593E-2,7.206402E-2,1.4605834E-1,5.605765E-2,-2.0462204E-2,-4.1625958E-2,-4.1067493E-1,1.754082E-1,1.11987166E-1,5.270774E-2,7.802053E-3,1.3360909E-1,7.509071E-2,-2.006837E-1,1.8675299E-1,2.5183449E-2,-2.0844705E-2],"split_indices":[1,1,10,1,11,5,5,2,2,5,5,14,7,3,11,13,4,12,5,9,7,2,13,2,3,2,6,0,2,14,1,6,11,9,6,4,5,9,14,1,7,2,6,9,6,12,6,0,0,0,0,0,1,1,2,2,9,6,9,12,9,2,0,0,0,0,0,0,0,0,0,0,0,0,0,0,0,0,0,0,0,0,0,0,0,0,0,0,0,0,0,0,0,0,0,0,0,0,0,0,0,0,0,0,0,0,0,0,0,0,0,0,0,0,0,0,0,0,0,0,0,0,0,0,0,0,0],"split_type":[0,0,1,0,1,0,0,0,0,0,0,1,0,0,1,0,0,0,0,1,0,0,0,0,0,0,0,0,0,1,0,0,1,1,0,0,0,1,1,0,0,0,0,1,0,0,0,0,0,0,0,0,0,0,0,0,1,0,1,0,1,0,0,0,0,0,0,0,0,0,0,0,0,0,0,0,0,0,0,0,0,0,0,0,0,0,0,0,0,0,0,0,0,0,0,0,0,0,0,0,0,0,0,0,0,0,0,0,0,0,0,0,0,0,0,0,0,0,0,0,0,0,0,0,0,0,0],"sum_hessian":[4.9760535E4,1.5656863E4,3.410367E4,4.352069E3,1.1304794E4,1.6906021E4,1.7197652E4,8.138219E2,3.538247E3,5.7089834E3,5.5958105E3,4.183681E3,1.272234E4,3.556176E3,1.3641477E4,1.7072554E2,6.430964E2,3.6883994E2,3.1694072E3,3.8197432E3,1.8892401E3,4.620609E3,9.752017E2,2.7260247E3,1.4576565E3,9.642339E3,3.080001E3,2.684693E3,8.714829E2,7.72753E3,5.913947E3,1.6863889E2,2.086653E0,6.241102E2,1.8986135E1,1.3544563E2,2.3339432E2,2.0080128E3,1.1613943E3,3.7800156E3,3.972769E1,1.6355956E3,2.5364449E2,8.116267E2,3.8089822E3,8.8241595E2,9.278579E1,1.3322565E3,1.3937682E3,5.330485E2,9.246079E2,2.739872E3,6.902467E3,5.2340247E2,2.5565984E3,9.2583386E2,1.7588591E3,9.955864E0,8.6152704E2,6.476411E3,1.251119E3,1.1445051E2,5.799496E3,1.575226E2,1.1116278E1,1.0608078E0,1.0258453E0,6.179036E2,6.206605E0,9.4538765E0,9.53226E0,5.182449E1,8.362113E1,1.0152904E2,1.3186528E2,1.9640527E3,4.396017E1,7.902879E2,3.711064E2,1.3306548E3,2.4493606E3,3.2979713E1,6.747978E0,4.991887E0,1.6306038E3,1.0664354E2,1.4700093E2,7.618224E2,4.980432E1,3.6334238E3,1.7555832E2,5.465621E2,3.3585388E2,5.542622E1,3.7359566E1,1.0787767E3,2.5347974E2,2.897192E2,1.104049E3,2.2635828E1,5.1041272E2,4.7763416E2,4.4697375E2,1.0860214E3,1.6538507E3,5.4817817E3,1.4206849E3,5.171989E2,6.203554E0,3.9486014E2,2.1617383E3,5.8663635E2,3.391975E2,1.5576698E3,2.0118935E2,7.6066303E0,2.349234E0,2.4357257E2,6.1795447E2,4.0253733E3,2.4510376E3,3.0188858E2,9.492304E2,2.8692784E0,1.1158123E2,2.1413472E3,3.6581492E3],"tree_param":{"num_deleted":"0","num_feature":"15","num_nodes":"127","size_leaf_vector":"0"}},{"base_weights":[2.3328882E-1,4.349118E-1,1.478758E-1,6.462297E-1,3.8767523E-1,2.0252231E-1,6.1004017E-2,5.436295E-1,7.273848E-1,4.8232636E-1,3.365233E-1,1.6366124E-1,3.2636896E-1,1.0392043E-1,-5.22754E-2,6.590445E-1,4.1672313E-1,8.611309E-1,6.74942E-1,3.567322E-1,5.341513E-1,3.961032E-1,2.4611358E-1,3.3781644E-2,1.9010098E-1,3.915193E-1,1.9323769E-1,1.6341867E-1,2.4226014E-2,-5.82248E-2,1.2342882E0,6.9092333E-1,3.929587E-1,4.329447E-1,-4.7990438E-1,8.6533594E-1,-1.0738779E-1,7.684645E-1,6.0790646E-1,5.04357E-1,2.4797848E-1,6.5488815E-1,4.9178237E-1,4.6730477E-1,3.5022226E-1,2.8484118E-1,1.3775063E-1,5.403708E-1,1.1411784E-2,2.5677308E-1,1.359383E-1,3.118527E-1,4.8235512E-1,3.0364105E-1,4.894883E-2,1.0269102E-1,2.5635377E-1,1.0811476E-1,-3.1327065E-2,-1.13158105E-2,-1.62734E-1,3.1352538E-4,1.4790072E0,2.1289504E-1,6.853261E-2,2.2951375E-1,-4.2487487E-2,7.885323E-2,1.5574957E-1,7.668608E-2,-3.3274046E-1,2.6127145E-1,4.0200323E-2,2.3910685E-1,1.1050662E-1,1.17920436E-1,1.945386E-1,2.0321146E-1,1.256348E-1,9.151034E-2,-1.1923064E-1,2.1916832E-1,1.5266204E-1,1.3761637E-1,2.0199277E-1,-2.9072478E-1,1.4138271E-1,1.0692761E-1,-6.524274E-2,-7.282861E-2,8.8250645E-2,5.343302E-2,-7.054569E-2,2.9149377E-1,1.2695579E-1,-1.9645622E-2,4.9182925E-2,1.1242551E-1,6.476379E-2,4.1926246E-2,-1.8516342E-1,1.0336473E-1,3.49788E-2,1.4704973E-1,-7.758397E-2,1.2530248E-1,3.528911E-2,2.0285163E-2,-1.9514151E-1,6.0423832E-2,9.377834E-3,4.6201963E-2,9.7690016E-2,-2.2589438E-2,4.6208367E-2,9.687095E-2,-1.4045865E-2,-5.34836E-2,1.1196472E-2,-3.4156997E-2,-1.21746615E-1,3.1962472E-1,-2.9395732E-1,4.6209213E-1,1.318373E-1],"categories":[1,3,2,3,2,3,5,8,10,11,3,10,3,10,11,12,0,3,5,7,8,9,10,11,12,13,0,2,3,5,6,7,9,10,11,12,4,8,11,1,2,3,4,5,7,9,10,11,13,0,0,3,4,5,6,7,10,11],"categories_nodes":[10,13,14,16,17,31,37,39,40,47,48,51],"categories_segments":[0,2,4,5,10,12,16,26,36,39,49,50],"categories_sizes":[2,2,1,5,2,4,10,10,3,10,1,8],"default_left":[0,0,0,0,0,0,0,0,0,0,0,0,0,0,0,0,0,0,0,0,0,0,0,0,0,0,0,0,0,0,0,0,0,0,0,0,0,0,0,0,0,0,0,0,0,0,0,0,0,0,0,0,0,0,0,0,0,0,0,0,0,0,0,0,0,0,0,0,0,0,0,0,0,0,0,0,0,0,0,0,0,0,0,0,0,0,0,0,0,0,0,0,0,0,0,0,0,0,0,0,0,0,0,0,0,0,0,0,0,0,0,0,0,0,0,0,0,0,0,0,0,0,0,0,0],"id":6,"left_children":[1,3,5,7,9,11,13,15,17,19,21,23,25,27,29,31,33,35,37,39,41,43,45,47,49,51,53,55,57,59,61,63,65,67,69,71,-1,73,75,77,79,81,83,85,87,89,91,93,95,97,99,101,103,105,107,109,111,113,115,117,119,121,123,-1,-1,-1,-1,-1,-1,-1,-1,-1,-1,-1,-1,-1,-1,-1,-1,-1,-1,-1,-1,-1,-1,-1,-1,-1,-1,-1,-1,-1,-1,-1,-1,-1,-1,-1,-1,-1,-1,-1,-1,-1,-1,-1,-1,-1,-1,-1,-1,-1,-1,-1,-1,-1,-1,-1,-1,-1,-1,-1,-1,-1,-1],"loss_changes":[8.122615E2,1.3985425E2,1.5728839E2,2.0943604E1,5.539038E1,9.783826E1,6.2215755E1,1.6361328E1,9.434631E0,2.5995605E1,4.004309E1,5.3164825E1,4.205133E1,4.40026E1,2.6988987E1,4.759552E0,8.115562E0,2.3530273E0,5.992676E0,1.8790375E1,1.4236328E1,1.4504883E1,1.2394333E1,2.968615E1,4.6421356E1,2.3441559E1,2.5438766E1,2.9961761E1,1.8496643E1,1.7163387E1,4.9011974E0,4.4137115E0,1.3191778E1,7.703392E0,4.9744997E0,1.5022278E0,0E0,4.5788574E0,5.016144E0,7.101486E0,2.5175835E1,7.763397E0,1.2358368E1,1.0475616E1,9.707428E0,1.0808426E1,1.1811114E1,5.1877747E0,2.945529E1,2.7734406E1,2.0492065E1,1.1066147E1,8.931976E0,1.9147774E1,9.1032505E0,2.2667397E1,1.4834671E1,1.3326719E1,1.312081E1,1.9640196E1,1.284099E1,4.8926377E0,1.8626785E-1,0E0,0E0,0E0,0E0,0E0,0E0,0E0,0E0,0E0,0E0,0E0,0E0,0E0,0E0,0E0,0E0,0E0,0E0,0E0,0E0,0E0,0E0,0E0,0E0,0E0,0E0,0E0,0E0,0E0,0E0,0E0,0E0,0E0,0E0,0E0,0E0,0E0,0E0,0E0,0E0,0E0,0E0,0E0,0E0,0E0,0E0,0E0,0E0,0E0,0E0,0E0,0E0,0E0,0E0,0E0,0E0,0E0,0E0,0E0,0E0,0E0,0E0],"parents":[2147483647,0,0,1,1,2,2,3,3,4,4,5,5,6,6,7,7,8,8,9,9,10,10,11,11,12,12,13,13,14,14,15,15,16,16,17,17,18,18,19,19,20,20,21,21,22,22,23,23,24,24,25,25,26,26,27,27,28,28,29,29,30,30,31,31,32,32,33,33,34,34,35,35,37,37,38,38,39,39,40,40,41,41,42,42,43,43,44,44,45,45,46,46,47,47,48,48,49,49,50,50,51,51,52,52,53,53,54,54,55,55,56,56,57,57,58,58,59,59,60,60,61,61,62,62],"right_children":[2,4,6,8,10,12,14,16,18,20,22,24,26,28,30,32,34,36,38,40,42,44,46,48,50,52,54,56,58,60,62,64,66,68,70,72,-1,74,76,78,80,82,84,86,88,90,92,94,96,98,100,102,104,106,108,110,112,114,116,118,120,122,124,-1,-1,-1,-1,-1,-1,-1,-1,-1,-1,-1,-1,-1,-1,-1,-1,-1,-1,-1,-1,-1,-1,-1,-1,-1,-1,-1,-1,-1,-1,-1,-1,-1,-1,-1,-1,-1,-1,-1,-1,-1,-1,-1,-1,-1,-1,-1,-1,-1,-1,-1,-1,-1,-1,-1,-1,-1,-1,-1,-1,-1,-1],"split_conditions":[1.229E1,7.69E0,6E1,6.7E4,1.33E1,8E4,2.438E1,3.02E1,2.13E1,5.1648E4,NaN,3.05E4,2.001E3,NaN,NaN,2.476E1,NaN,NaN,1.285E1,7E3,9E3,9.99E0,2.463E1,1.8E3,9.1E3,2.3313859E0,1.571E1,8.6E4,1.56E4,3.12E1,9E0,NaN,2.07E1,1.996E3,1.3580129E0,3.5E4,-1.0738779E-1,NaN,8.9E3,NaN,NaN,5.42E1,5E0,1.967E3,3.594E1,2E4,1E0,NaN,NaN,3.91E1,9.97E1,NaN,3.492E1,1.12E5,3.398E1,1.615E4,2.2310433E0,3.648E4,5E0,4.7E4,2E1,2.6E4,9.25E1,2.1289504E-1,6.853261E-2,2.2951375E-1,-4.2487487E-2,7.885323E-2,1.5574957E-1,7.668608E-2,-3.3274046E-1,2.6127145E-1,4.0200323E-2,2.3910685E-1,1.1050662E-1,1.17920436E-1,1.945386E-1,2.0321146E-1,1.256348E-1,9.151034E-2,-1.1923064E-1,2.1916832E-1,1.5266204E-1,1.3761637E-1,2.0199277E-1,-2.9072478E-1,1.4138271E-1,1.0692761E-1,-6.524274E-2,-7.282861E-2,8.8250645E-2,5.343302E-2,-7.054569E-2,2.9149377E-1,1.2695579E-1,-1.9645622E-2,4.9182925E-2,1.1242551E-1,6.476379E-2,4.1926246E-2,-1.8516342E-1,1.0336473E-1,3.49788E-2,1.4704973E-1,-7.758397E-2,1.2530248E-1,3.528911E-2,2.0285163E-2,-1.9514151E-1,6.0423832E-2,9.377834E-3,4.6201963E-2,9.7690016E-2,-2.2589438E-2,4.6208367E-2,9.687095E-2,-1.4045865E-2,-5.34836E-2,1.1196472E-2,-3.4156997E-2,-1.21746615E-1,3.1962472E-1,-2.9395732E-1,4.6209213E-1,1.318373E-1],"split_indices":[1,1,7,2,5,2,5,6,6,2,11,2,12,11,8,5,9,9,5,0,0,1,5,0,0,3,5,2,0,5,4,9,6,12,3,0,0,9,0,9,9,6,3,12,5,2,13,9,14,6,6,9,5,2,5,0,3,2,4,2,4,2,6,0,0,0,0,0,0,0,0,0,0,0,0,0,0,0,0,0,0,0,0,0,0,0,0,0,0,0,0,0,0,0,0,0,0,0,0,0,0,0,0,0,0,0,0,0,0,0,0,0,0,0,0,0,0,0,0,0,0,0,0,0,0],"split_type":[0,0,0,0,0,0,0,0,0,0,1,0,0,1,1,0,1,1,0,0,0,0,0,0,0,0,0,0,0,0,0,1,0,0,0,0,0,1,0,1,1,0,0,0,0,0,0,1,1,0,0,1,0,0,0,0,0,0,0,0,0,0,0,0,0,0,0,0,0,0,0,0,0,0,0,0,0,0,0,0,0,0,0,0,0,0,0,0,0,0,0,0,0,0,0,0,0,0,0,0,0,0,0,0,0,0,0,0,0,0,0,0,0,0,0,0,0,0,0,0,0,0,0,0,0],"sum_hessian":[4.716903E4,1.4034825E4,3.3134203E4,2.5617734E3,1.1473052E4,2.0338797E4,1.2795408E4,1.1348016E3,1.4269719E3,4.0221216E3,7.4509307E3,1.5482851E4,4.8559453E3,9.279798E3,3.51561E3,5.9211224E2,5.4268945E2,3.9758392E2,1.029388E3,1.1771832E3,2.8449382E3,4.4891826E3,2.961748E3,2.6191426E3,1.2863708E4,3.2591006E3,1.5968448E3,5.3125244E3,3.967274E3,3.5003782E3,1.52319E1,5.2733716E2,6.477507E1,5.3355365E2,9.135773E0,3.965064E2,1.0775077E0,4.2541708E2,6.039709E2,4.9780865E2,6.793746E2,7.35256E2,2.1096821E3,1.7555698E3,2.7336125E3,2.1807473E3,7.8100073E2,1.0978515E2,2.5093574E3,5.7643193E3,7.099389E3,1.7386599E3,1.5204407E3,9.0402277E2,6.928221E2,3.2142832E3,2.098241E3,1.5801696E3,2.3871042E3,2.4167344E3,1.0836438E3,2.6865387E0,1.25453615E1,5.063016E2,2.1035564E1,3.793795E1,2.6837116E1,1.80837E2,3.5271664E2,4.4858723E0,4.649901E0,3.9332056E2,3.1858473E0,3.961494E2,2.9267662E1,9.760588E1,5.0636502E2,1.6245035E2,3.353583E2,6.24679E2,5.469558E1,4.8164017E2,2.5361581E2,1.7876313E3,3.220509E2,4.169807E0,1.7514E3,2.704434E3,2.9178537E1,3.7449436E1,2.1432979E3,7.051991E2,7.580164E1,2.1898956E1,8.788619E1,1.6686793E3,8.4067804E2,1.4816354E3,4.2826836E3,7.0644116E3,3.497748E1,1.4886208E3,2.5003899E2,1.5049156E3,1.5525013E1,5.59671E2,3.4435175E2,6.756904E2,1.713167E1,1.348615E3,1.8656682E3,8.482857E2,1.2499553E3,3.16236E2,1.2639336E3,9.919533E1,2.287909E3,5.445912E2,1.8721432E3,9.034557E2,1.801881E2,1.2458106E0,1.4407281E0,1.1391901E1,1.1534609E0],"tree_param":{"num_deleted":"0","num_feature":"15","num_nodes":"125","size_leaf_vector":"0"}},{"base_weights":[1.734793E-1,3.7685364E-1,1.1705007E-1,5.446365E-1,3.2825986E-1,1.9725612E-1,6.9722265E-2,7.152189E-1,4.8599952E-1,3.7022942E-1,2.1344668E-1,1.19617425E-1,2.476095E-1,8.708532E-2,-6.987917E-2,5.311505E-1,7.672629E-1,2.147007E-1,5.217566E-1,3.0695295E-1,4.3115547E-1,1.9240175E-1,4.596391E-1,9.198659E-2,4.0334764E-1,3.6664385E-1,2.1653482E-1,8.298956E-2,1.1761414E0,3.0083112E-2,-1.3553827E-1,4.2437375E-1,8.572949E-1,8.673698E-1,6.5456975E-1,-4.4000752E-2,3.961161E-1,5.736213E-1,3.6944827E-1,3.09772E-1,-1.0801381E0,4.1093084E-1,6.2101734E-1,2.5359264E-1,1.2422436E-1,5.132397E-1,-7.62921E-1,1.8249057E-1,1.5185048E-2,4.7095364E-1,2.0913969E-1,3.8374364E-1,-2.6632804E-1,5.5383045E-2,2.3606701E-1,1.3722816E-1,3.6014855E-2,1.2186843E0,1.2704383E-1,2.79923E-1,-3.3745863E-2,-3.6342034E-1,-1.0012915E-1,1.468365E-1,-1.1633175E-1,7.5496696E-2,2.7067447E-1,-6.042805E-2,2.6244584E-1,2.0556794E-1,2.3906052E-2,1.4006972E-1,-7.236253E-2,1.4318857E-1,-1.2117663E-1,1.7468177E-1,-8.054198E-2,6.5584905E-2,1.4049152E-1,9.495837E-2,-5.7576798E-2,9.286712E-2,-6.919546E-1,1.2686974E-1,1.594987E-2,2.1173446E-1,8.829719E-2,-1.04647934E-1,7.925368E-2,4.705839E-2,-5.1531505E-2,-1.2875627E-1,1.6478495E-1,1.2393885E-1,-3.5971496E-1,-1.1760377E-2,7.320564E-2,6.468584E-2,-2.1468785E-2,1.456461E-1,-9.3934424E-2,-2.0722498E-1,7.434509E-2,7.7770557E-3,1.193315E-1,-3.427343E-2,-4.3610835E-1,2.2279577E-2,-2.612616E-1,7.7957496E-2,3.0900208E-2,5.5487473E-2,1.6015604E-2,1.4714926E-2,-5.6066293E-2,3.8964796E-1,1.730559E-1,2.553138E-1,-1.3613473E-1,1.1474948E-1,-3.0958084E-2,-4.3740578E-2,2.4399213E-2,3.8132888E-1,-1.2162029E-1,9.276076E-2,-3.4501564E-2],"categories":[5,6,1,3,5,7,8,9,10,12,13,0,2,3,4,5,6,10,11,0,2,3,5,8,9,11,3,5,9,10,12,10,11,5,10,11,12,1],"categories_nodes":[6,15,22,23,25,29,36,39,53,55],"categories_segments":[0,2,3,11,17,19,26,31,33,37],"categories_sizes":[2,1,8,6,2,7,5,2,4,1],"default_left":[0,0,0,0,0,0,0,0,0,0,0,0,0,0,0,0,0,0,0,0,0,0,0,0,0,0,0,0,0,0,0,0,0,0,0,0,0,0,0,0,0,0,0,0,0,0,0,0,0,0,0,0,0,0,0,0,0,0,0,0,0,0,0,0,0,0,0,0,0,0,0,0,0,0,0,0,0,0,0,0,0,0,0,0,0,0,0,0,0,0,0,0,0,0,0,0,0,0,0,0,0,0,0,0,0,0,0,0,0,0,0,0,0,0,0,0,0,0,0,0,0,0,0,0,0,0,0],"id":7,"left_children":[1,3,5,7,9,11,13,15,17,19,21,23,25,27,29,31,33,35,37,39,41,43,45,47,49,51,53,55,57,59,61,63,65,67,69,71,73,75,77,79,81,83,85,87,89,91,93,95,97,99,101,103,105,107,109,111,113,115,117,119,121,123,125,-1,-1,-1,-1,-1,-1,-1,-1,-1,-1,-1,-1,-1,-1,-1,-1,-1,-1,-1,-1,-1,-1,-1,-1,-1,-1,-1,-1,-1,-1,-1,-1,-1,-1,-1,-1,-1,-1,-1,-1,-1,-1,-1,-1,-1,-1,-1,-1,-1,-1,-1,-1,-1,-1,-1,-1,-1,-1,-1,-1,-1,-1,-1,-1],"loss_changes":[5.1863525E2,7.985376E1,1.342909E2,2.16875E1,3.6610718E1,5.1297516E1,5.3944145E1,4.970703E0,1.58220825E1,2.1358398E1,1.0484116E1,4.047158E1,2.9375946E1,8.818248E1,1.6163769E1,4.058895E0,4.344452E0,9.074259E0,1.1246735E1,1.1040924E1,1.0640625E1,7.8183136E0,1.0874847E1,3.273484E1,5.918106E0,1.792926E1,1.987091E1,5.023436E1,3.1513748E0,1.5587891E1,1.1955843E1,5.3514595E0,5.990505E-1,1.9877319E0,3.6272736E0,8.21766E0,7.56625E0,8.026367E0,5.433811E0,9.324646E0,1.0558207E1,1.0970306E1,7.3025208E0,6.409977E0,8.643664E0,5.4619713E0,4.1480184E0,2.9499573E1,4.4333687E1,4.0163116E0,4.3522577E0,8.041595E0,7.764003E0,1.2031059E1,1.7809204E1,3.6611847E1,3.0714947E1,2.9066772E0,2.0696547E0,7.8557396E0,1.0056973E1,1.42040825E1,7.8766737E0,0E0,0E0,0E0,0E0,0E0,0E0,0E0,0E0,0E0,0E0,0E0,0E0,0E0,0E0,0E0,0E0,0E0,0E0,0E0,0E0,0E0,0E0,0E0,0E0,0E0,0E0,0E0,0E0,0E0,0E0,0E0,0E0,0E0,0E0,0E0,0E0,0E0,0E0,0E0,0E0,0E0,0E0,0E0,0E0,0E0,0E0,0E0,0E0,0E0,0E0,0E0,0E0,0E0,0E0,0E0,0E0,0E0,0E0,0E0,0E0,0E0,0E0,0E0,0E0],"parents":[2147483647,0,0,1,1,2,2,3,3,4,4,5,5,6,6,7,7,8,8,9,9,10,10,11,11,12,12,13,13,14,14,15,15,16,16,17,17,18,18,19,19,20,20,21,21,22,22,23,23,24,24,25,25,26,26,27,27,28,28,29,29,30,30,31,31,32,32,33,33,34,34,35,35,36,36,37,37,38,38,39,39,40,40,41,41,42,42,43,43,44,44,45,45,46,46,47,47,48,48,49,49,50,50,51,51,52,52,53,53,54,54,55,55,56,56,57,57,58,58,59,59,60,60,61,61,62,62],"right_children":[2,4,6,8,10,12,14,16,18,20,22,24,26,28,30,32,34,36,38,40,42,44,46,48,50,52,54,56,58,60,62,64,66,68,70,72,74,76,78,80,82,84,86,88,90,92,94,96,98,100,102,104,106,108,110,112,114,116,118,120,122,124,126,-1,-1,-1,-1,-1,-1,-1,-1,-1,-1,-1,-1,-1,-1,-1,-1,-1,-1,-1,-1,-1,-1,-1,-1,-1,-1,-1,-1,-1,-1,-1,-1,-1,-1,-1,-1,-1,-1,-1,-1,-1,-1,-1,-1,-1,-1,-1,-1,-1,-1,-1,-1,-1,-1,-1,-1,-1,-1,-1,-1,-1,-1,-1,-1],"split_conditions":[1.144E1,7.69E0,1.449E1,6.24E0,2.18E1,1.0328947E-1,NaN,5.2E4,3.75E4,6.6E4,1.114E1,1.433E1,1.082E1,2.343E1,2.383E1,NaN,1.303E1,1.998E3,2.004E1,9.86E1,6E0,9.76E0,NaN,NaN,1.446E1,NaN,3.7E4,1.823E1,3.321E1,NaN,4E4,5.48E1,2.5E4,1.8E3,2.4E1,7E0,NaN,9.2E1,1.025E4,NaN,8.2E3,9.15E1,1.099E1,2.2E4,3.247E1,1.981E3,1.991E3,1.199E1,4.04E1,2.3E1,4.11E0,2.76E4,2.965E4,NaN,2.733E1,NaN,3.492E1,8.45E1,1.1E1,2.488E1,6.8E4,1.8E3,5.36E0,1.468365E-1,-1.1633175E-1,7.5496696E-2,2.7067447E-1,-6.042805E-2,2.6244584E-1,2.0556794E-1,2.3906052E-2,1.4006972E-1,-7.236253E-2,1.4318857E-1,-1.2117663E-1,1.7468177E-1,-8.054198E-2,6.5584905E-2,1.4049152E-1,9.495837E-2,-5.7576798E-2,9.286712E-2,-6.919546E-1,1.2686974E-1,1.594987E-2,2.1173446E-1,8.829719E-2,-1.04647934E-1,7.925368E-2,4.705839E-2,-5.1531505E-2,-1.2875627E-1,1.6478495E-1,1.2393885E-1,-3.5971496E-1,-1.1760377E-2,7.320564E-2,6.468584E-2,-2.1468785E-2,1.456461E-1,-9.3934424E-2,-2.0722498E-1,7.434509E-2,7.7770557E-3,1.193315E-1,-3.427343E-2,-4.3610835E-1,2.2279577E-2,-2.612616E-1,7.7957496E-2,3.0900208E-2,5.5487473E-2,1.6015604E-2,1.4714926E-2,-5.6066293E-2,3.8964796E-1,1.730559E-1,2.553138E-1,-1.3613473E-1,1.1474948E-1,-3.0958084E-2,-4.3740578E-2,2.4399213E-2,3.8132888E-1,-1.2162029E-1,9.276076E-2,-3.4501564E-2],"split_indices":[1,1,1,1,5,3,10,2,2,2,1,1,5,1,1,14,5,12,5,6,3,1,9,10,1,9,2,5,5,9,2,6,2,0,4,4,9,6,0,9,0,6,1,2,5,12,12,1,6,4,5,2,0,9,5,14,5,6,4,5,2,0,5,0,0,0,0,0,0,0,0,0,0,0,0,0,0,0,0,0,0,0,0,0,0,0,0,0,0,0,0,0,0,0,0,0,0,0,0,0,0,0,0,0,0,0,0,0,0,0,0,0,0,0,0,0,0,0,0,0,0,0,0,0,0,0,0],"split_type":[0,0,0,0,0,0,1,0,0,0,0,0,0,0,0,1,0,0,0,0,0,0,1,1,0,1,0,0,0,1,0,0,0,0,0,0,1,0,0,1,0,0,0,0,0,0,0,0,0,0,0,0,0,1,0,1,0,0,0,0,0,0,0,0,0,0,0,0,0,0,0,0,0,0,0,0,0,0,0,0,0,0,0,0,0,0,0,0,0,0,0,0,0,0,0,0,0,0,0,0,0,0,0,0,0,0,0,0,0,0,0,0,0,0,0,0,0,0,0,0,0,0,0,0,0,0,0],"sum_hessian":[4.5194867E4,9.815073E3,3.5379793E4,2.2019731E3,7.6130996E3,1.3128264E4,2.2251531E4,5.60426E2,1.641547E3,5.5735005E3,2.0395994E3,5.16612E3,7.9621436E3,1.9790451E4,2.461079E3,1.25999344E2,4.344267E2,1.919759E2,1.4495712E3,2.736975E3,2.8365251E3,1.8806223E3,1.5897711E2,4.708874E3,4.572457E2,1.6460399E3,6.3161035E3,1.9717375E4,7.307764E1,9.758873E2,1.4851918E3,9.665615E1,2.9343193E1,2.2651418E2,2.079125E2,7.944436E1,1.1253154E2,1.0792826E3,3.7028854E2,2.732199E3,4.776134E0,2.5663179E3,2.7020743E2,9.8965936E2,8.9096295E2,1.5285567E2,6.1214414E0,2.1609753E3,2.547899E3,3.3811798E2,1.1912772E2,1.6031251E3,4.2914845E1,6.831944E2,5.632909E3,9.150255E3,1.0567119E4,7.007434E1,3.0032985E0,1.9789595E2,7.779914E2,1.9849243E2,1.2866992E3,8.985311E1,6.8030386E0,2.483397E0,2.6859795E1,1.3876765E0,2.251265E2,1.9720428E2,1.0708217E1,2.1744362E1,5.7699997E1,1.0253121E2,1.000033E1,1.0686127E3,1.0669848E1,1.4787613E2,2.2241243E2,2.6962598E3,3.593915E1,2.5894396E0,2.1866941E0,2.4830698E3,8.324807E1,2.1362077E2,5.6586666E1,1.6539164E1,9.731202E2,8.0290375E2,8.805921E1,5.2288795E0,1.476268E2,1.6702465E0,4.4511952E0,4.695406E2,1.6914347E3,7.691825E2,1.7787164E3,3.323386E2,5.7793603E0,4.214364E0,1.1491336E2,6.0585533E1,1.5425396E3,3.9013973E1,3.90087E0,6.704468E2,1.2747598E1,4.777733E3,8.551766E2,5.830092E3,3.3201633E3,9.984052E3,5.830675E2,6.1385784E1,8.688557E0,1.1297845E0,1.8735142E0,1.5610277E2,4.1793182E1,3.9403345E2,3.8395795E2,4.23724E0,1.942552E2,4.442798E1,1.2422712E3],"tree_param":{"num_deleted":"0","num_feature":"15","num_nodes":"127","size_leaf_vector":"0"}},{"base_weights":[1.2758806E-1,3.473545E-1,9.4689675E-2,5.382472E-1,3.0971405E-1,1.3416027E-1,2.144129E-2,6.77815E-1,4.6441832E-1,4.1334802E-1,2.5616497E-1,2.0320082E-1,8.6622566E-2,2.7259008E-3,1.6387022E-1,4.480327E-1,7.8237915E-1,4.8573133E-1,-3.843367E-1,-2.3659919E-1,4.2722282E-1,3.1742725E-1,1.8770196E-1,1.4288563E-1,2.5700942E-1,1.6705869E-1,5.269041E-2,-6.737042E-2,4.960763E-2,1.8041785E-1,-6.960465E-1,-7.058365E-1,5.0103045E-1,8.6545575E-1,6.438543E-1,5.077018E-1,-6.7839816E-2,-1.0456876E0,5.380347E-1,-5.912365E-1,5.0189185E-1,5.0797266E-1,3.3893812E-1,3.0634946E-1,7.5152457E-1,2.0881492E-1,-3.3049738E-1,2.1279171E-1,8.245919E-2,3.0309513E-1,1.5012291E-1,1.8652408E-1,-5.8802277E-2,7.6133874E-3,1.402956E-1,3.4504082E-2,-1.3258411E-1,6.49773E-2,-1.2905008E-1,1.893308E-1,-8.517811E-1,-9.0153915E-1,4.8274627E-1,9.596946E-2,-3.9891803E-1,1.6847464E-1,-6.308515E-2,2.704847E-1,1.4516863E-1,2.6407795E-2,2.1279821E-1,8.271368E-2,1.6255999E-1,-2.4859275E-1,1.0603458E-1,-1.625494E-1,-5.968247E-1,2.7621564E-1,-2.284133E-1,-1.2163275E-1,-5.6968397E-1,2.5804493E-1,-1.1709931E-1,1.5669194E-1,-7.4489573E-3,1.2047114E-1,5.4166373E-2,9.66041E-2,-3.7919092E-3,-2.2037783E-1,2.4493296E-1,8.321099E-2,1.9480418E-2,1.14537686E-1,-1.5276551E-1,1.2247366E-1,5.1640842E-2,3.4310713E-2,-4.439431E-2,9.441638E-2,-4.4109516E-2,1.6742553E-1,3.9795376E-2,3.0539857E-2,6.718432E-2,-3.3779524E-2,1.3001479E-1,-1.9802645E-2,2.1047233E-2,5.56596E-2,1.43952845E-2,3.4256253E-2,-1.8232867E-2,5.144209E-2,-4.445914E-2,3.1129956E-2,-3.7522687E-4,-6.442568E-2,1.724635E-3,7.391528E-2,2.1556363E-2,2.2428729E-1,-3.1519622E-1,-5.4351336E-1,-1.9200467E-1,-1.826078E-1,2.9374287E-1],"categories":[2,3,0,3,5,7,10,11,12,1,2,3,5,11,12,1,2,3,4,7,10,11,0,5,10,11,4,6,8,9,10,11,3,1,2,3,0,3],"categories_nodes":[5,6,8,10,14,20,25,26,41,48,55,57,60],"categories_segments":[0,2,3,9,12,15,18,22,23,26,32,33,36],"categories_sizes":[2,1,6,3,3,3,4,1,3,6,1,3,2],"default_left":[0,0,0,0,0,0,0,0,0,0,0,0,0,0,0,0,0,0,0,0,0,0,0,0,0,0,0,0,0,0,0,0,0,0,0,0,0,0,0,0,0,0,0,0,0,0,0,0,0,0,0,0,0,0,0,0,0,0,0,0,0,0,0,0,0,0,0,0,0,0,0,0,0,0,0,0,0,0,0,0,0,0,0,0,0,0,0,0,0,0,0,0,0,0,0,0,0,0,0,0,0,0,0,0,0,0,0,0,0,0,0,0,0,0,0,0,0,0,0,0,0,0,0,0,0,0,0],"id":8,"left_children":[1,3,5,7,9,11,13,15,17,19,21,23,25,27,29,31,33,35,37,39,41,43,45,47,49,51,53,55,57,59,61,63,65,67,69,71,73,75,77,79,81,83,85,87,89,91,93,95,97,99,101,103,105,107,109,111,113,115,117,119,121,123,125,-1,-1,-1,-1,-1,-1,-1,-1,-1,-1,-1,-1,-1,-1,-1,-1,-1,-1,-1,-1,-1,-1,-1,-1,-1,-1,-1,-1,-1,-1,-1,-1,-1,-1,-1,-1,-1,-1,-1,-1,-1,-1,-1,-1,-1,-1,-1,-1,-1,-1,-1,-1,-1,-1,-1,-1,-1,-1,-1,-1,-1,-1,-1,-1],"loss_changes":[3.1599854E2,4.0725403E1,1.0992258E2,9.329834E0,2.6288116E1,8.1072266E1,3.5492252E1,7.3777313E0,1.1317963E1,1.469809E1,1.3103577E1,3.2658997E1,3.9932785E1,3.868112E1,2.2130165E1,6.6482716E0,1.9713135E0,7.340439E0,1.009807E1,9.325915E0,1.1128693E1,7.727768E0,1.6311111E1,2.005655E1,2.6175598E1,1.9097488E1,4.0648407E1,3.1345026E1,1.9375961E1,1.4126736E1,7.557311E0,3.5837104E0,4.382063E0,1.4186172E0,3.0772705E0,4.430954E0,7.925515E0,3.4125776E0,4.2753105E0,5.0005894E0,4.0838337E0,6.3206177E0,7.469368E0,8.075638E0,4.5062675E0,1.4057999E1,7.6420937E0,1.7432549E1,1.8771948E1,1.9505585E1,1.1370689E1,1.2650833E1,9.189472E0,3.1304995E1,1.4594299E1,1.3991608E1,1.3680515E1,1.668586E1,6.459694E0,1.0074936E1,4.976942E0,4.883127E0,3.313527E0,0E0,0E0,0E0,0E0,0E0,0E0,0E0,0E0,0E0,0E0,0E0,0E0,0E0,0E0,0E0,0E0,0E0,0E0,0E0,0E0,0E0,0E0,0E0,0E0,0E0,0E0,0E0,0E0,0E0,0E0,0E0,0E0,0E0,0E0,0E0,0E0,0E0,0E0,0E0,0E0,0E0,0E0,0E0,0E0,0E0,0E0,0E0,0E0,0E0,0E0,0E0,0E0,0E0,0E0,0E0,0E0,0E0,0E0,0E0,0E0,0E0,0E0,0E0,0E0],"parents":[2147483647,0,0,1,1,2,2,3,3,4,4,5,5,6,6,7,7,8,8,9,9,10,10,11,11,12,12,13,13,14,14,15,15,16,16,17,17,18,18,19,19,20,20,21,21,22,22,23,23,24,24,25,25,26,26,27,27,28,28,29,29,30,30,31,31,32,32,33,33,34,34,35,35,36,36,37,37,38,38,39,39,40,40,41,41,42,42,43,43,44,44,45,45,46,46,47,47,48,48,49,49,50,50,51,51,52,52,53,53,54,54,55,55,56,56,57,57,58,58,59,59,60,60,61,61,62,62],"right_children":[2,4,6,8,10,12,14,16,18,20,22,24,26,28,30,32,34,36,38,40,42,44,46,48,50,52,54,56,58,60,62,64,66,68,70,72,74,76,78,80,82,84,86,88,90,92,94,96,98,100,102,104,106,108,110,112,114,116,118,120,122,124,126,-1,-1,-1,-1,-1,-1,-1,-1,-1,-1,-1,-1,-1,-1,-1,-1,-1,-1,-1,-1,-1,-1,-1,-1,-1,-1,-1,-1,-1,-1,-1,-1,-1,-1,-1,-1,-1,-1,-1,-1,-1,-1,-1,-1,-1,-1,-1,-1,-1,-1,-1,-1,-1,-1,-1,-1,-1,-1,-1,-1,-1,-1,-1,-1],"split_conditions":[9.99E0,6.68E0,6E1,2.02E1,1.259E1,NaN,NaN,5.1648E4,NaN,1.978E3,NaN,6.21E4,1.33E1,6.1E4,NaN,1.977E3,1.276E1,2.3E1,6.75E4,9.6E4,NaN,3.2625E4,6E1,8.75E3,2.001E3,NaN,NaN,5.12E1,3.006E1,3.5E4,3.2123895E0,7.475E3,2.006E3,2.4E4,1.986E3,4.25E4,8.1E4,6E4,2.002E3,1.8E1,9.16E0,NaN,1.45E4,8.65E1,6.4E0,5.69E1,9E0,3.02E1,NaN,3.36E1,3.5E3,4.1E4,1.4E1,4.58E4,7.12E1,NaN,5E0,NaN,2.0263157E0,1.757E1,NaN,1.305E1,1.993E3,9.596946E-2,-3.9891803E-1,1.6847464E-1,-6.308515E-2,2.704847E-1,1.4516863E-1,2.6407795E-2,2.1279821E-1,8.271368E-2,1.6255999E-1,-2.4859275E-1,1.0603458E-1,-1.625494E-1,-5.968247E-1,2.7621564E-1,-2.284133E-1,-1.2163275E-1,-5.6968397E-1,2.5804493E-1,-1.1709931E-1,1.5669194E-1,-7.4489573E-3,1.2047114E-1,5.4166373E-2,9.66041E-2,-3.7919092E-3,-2.2037783E-1,2.4493296E-1,8.321099E-2,1.9480418E-2,1.14537686E-1,-1.5276551E-1,1.2247366E-1,5.1640842E-2,3.4310713E-2,-4.439431E-2,9.441638E-2,-4.4109516E-2,1.6742553E-1,3.9795376E-2,3.0539857E-2,6.718432E-2,-3.3779524E-2,1.3001479E-1,-1.9802645E-2,2.1047233E-2,5.56596E-2,1.43952845E-2,3.4256253E-2,-1.8232867E-2,5.144209E-2,-4.445914E-2,3.1129956E-2,-3.7522687E-4,-6.442568E-2,1.724635E-3,7.391528E-2,2.1556363E-2,2.2428729E-1,-3.1519622E-1,-5.4351336E-1,-1.9200467E-1,-1.826078E-1,2.9374287E-1],"split_indices":[1,1,7,6,5,11,14,2,9,12,11,2,5,2,9,12,5,4,2,2,11,0,7,0,12,9,14,6,5,0,3,0,12,0,12,2,2,2,12,4,1,9,0,6,6,6,4,6,9,5,0,2,4,2,6,11,4,11,3,1,11,1,12,0,0,0,0,0,0,0,0,0,0,0,0,0,0,0,0,0,0,0,0,0,0,0,0,0,0,0,0,0,0,0,0,0,0,0,0,0,0,0,0,0,0,0,0,0,0,0,0,0,0,0,0,0,0,0,0,0,0,0,0,0,0,0,0],"split_type":[0,0,0,0,0,1,1,0,1,0,1,0,0,0,1,0,0,0,0,0,1,0,0,0,0,1,1,0,0,0,0,0,0,0,0,0,0,0,0,0,0,1,0,0,0,0,0,0,1,0,0,0,0,0,0,1,0,1,0,0,1,0,0,0,0,0,0,0,0,0,0,0,0,0,0,0,0,0,0,0,0,0,0,0,0,0,0,0,0,0,0,0,0,0,0,0,0,0,0,0,0,0,0,0,0,0,0,0,0,0,0,0,0,0,0,0,0,0,0,0,0,0,0,0,0,0,0],"sum_hessian":[4.3710355E4,5.6900913E3,3.8020266E4,9.3499365E2,4.7550977E3,2.4706242E4,1.3314024E4,3.206497E2,6.1434393E2,1.6176759E3,3.1374216E3,1.0073253E4,1.4632988E4,1.1768627E4,1.5453973E3,1.0193333E2,2.1871637E2,5.9971234E2,1.4631607E1,3.3476135E1,1.5841998E3,1.653867E3,1.4835547E3,4.7511943E3,5.3220586E3,4.3403267E3,1.0292661E4,4.7163813E3,7.0522456E3,1.5169955E3,2.84018E1,3.9353123E0,9.799802E1,1.33441E2,8.5275375E1,5.7689886E2,2.2813478E1,8.443689E0,6.187917E0,2.2750376E1,1.07257595E1,8.249256E2,7.5927423E2,1.6143751E3,3.9491783E1,1.4260502E3,5.750443E1,2.2016404E3,2.549554E3,3.7174075E3,1.6046514E3,3.9961045E3,3.4422232E2,6.7965835E3,3.4960776E3,1.8409639E3,2.8754175E3,6.4941953E3,5.580502E2,1.5048181E3,1.21774025E1,2.4385931E1,4.0158687E0,1.6726198E0,2.2626925E0,9.050421E1,7.4938054E0,1.2064471E2,1.2796285E1,9.233412E0,7.604197E1,7.521766E1,5.016812E2,7.785948E0,1.502753E1,6.5309534E0,1.912736E0,5.0052714E0,1.1826457E0,2.1067266E1,1.68311E0,7.6785197E0,3.0472398E0,8.033335E2,2.1592066E1,5.430078E2,2.1626643E2,1.5388016E3,7.5573494E1,1.2211701E0,3.8270615E1,9.652208E2,4.6082944E2,1.1306459E1,4.619797E1,3.7754276E2,1.8240977E3,2.239892E3,3.096619E2,3.6241028E3,9.3304634E1,6.462886E1,1.5400226E3,1.2254623E3,2.770642E3,3.1100095E2,3.322138E1,3.1217896E3,3.6747942E3,2.3456174E3,1.1504603E3,1.0024289E3,8.3853503E2,1.3995058E2,2.7354668E3,4.09514E3,2.3990557E3,3.407901E2,2.1726007E2,1.01215704E3,4.9266104E2,1.0415541E0,1.1135849E1,4.119934E0,2.0265997E1,1.1847371E0,2.8311317E0],"tree_param":{"num_deleted":"0","num_feature":"15","num_nodes":"127","size_leaf_vector":"0"}},{"base_weights":[9.304204E-2,2.0706314E-1,5.215341E-2,3.5871926E-1,1.7626563E-1,2.3486942E-1,4.180055E-2,2.4173152E-1,4.4177556E-1,1.9329631E-1,3.392551E-2,3.2585508E-1,1.211356E-1,6.348769E-2,-2.693865E-2,3.8109872E-1,9.449152E-2,6.4532363E-1,3.8447514E-1,1.0525304E-1,2.2404034E-1,-1.6746962E-1,7.772405E-2,2.285202E-1,4.3612167E-1,1.9546492E-1,-5.1458623E-2,6.2016927E-2,1.3151953E0,3.3296964E-1,-3.937432E-2,2.1274479E-1,4.6010533E-1,2.618156E-1,-5.4202605E-2,7.902399E-1,4.885497E-1,4.3860465E-1,2.0891483E-1,1.3030651E-2,2.2171158E-1,2.8208447E-1,1.7358908E-1,4.572927E-1,-2.4771723E-1,2.240827E-1,1.4304722E-2,5.203395E-1,1.3914774E-1,1.9905236E-1,4.8486215E-1,2.2296318E-1,-2.4653357E-1,-1.994126E-1,2.3116653E-1,1.1070031E-1,2.8634558E-2,4.0380698E-1,1.4182238E-1,4.2008942E-1,4.6401277E-2,-1.23550475E-1,-1.1581562E-2,-6.0706846E-2,1.0744119E-1,1.4824238E-1,-6.74421E-2,1.2246227E-1,1.6506024E-3,-4.095806E-1,-6.100851E-3,2.4790525E-1,2.415396E-2,1.708184E-1,8.026492E-2,1.3805813E-1,2.722978E-2,1.2024001E-1,-2.6739495E-2,7.136774E-3,-2.6101962E-1,1.12937756E-1,1.45845525E-2,9.2468604E-2,2.6829557E-2,4.3245766E-2,1.096261E-1,2.9802042E-1,3.061643E-3,-3.7736684E-2,-1.6643263E-1,7.583662E-2,-3.218493E-1,-2.1117944E-2,7.5510725E-2,1.3033684E-1,2.6366758E-1,6.0105253E-2,-7.5414255E-2,2.4615109E-1,1.1610151E-2,2.0723897E-1,1.11835234E-1,-1.5056606E-2,7.921949E-2,-1.6062826E-1,1.5010369E-1,6.667272E-2,-8.5243724E-2,2.188383E-2,1.7945457E-1,-2.2291555E-3,4.3519557E-2,2.0834196E-2,-1.0148749E-2,-7.639089E-2,1.3847272E-1,1.04418695E-1,-9.336485E-2,2.602261E-2,-4.656896E-2,7.266076E-4,-7.502259E-2],"categories":[2,7,11,4,5,6,0,2,3,5,7,10,11,13,1,3,1,2,3,4,9,10,11,12,13,0,3,5,6,7,7,11,1,3,4,7,9,10,11,12,10,11,11,0,1,2,4,5,7,9,10,11,13,1,3,0,3,6,11,12],"categories_nodes":[5,6,17,18,21,28,32,38,39,45,49,56,61,62],"categories_segments":[0,3,6,14,16,25,30,32,40,42,43,53,55,57],"categories_sizes":[3,3,8,2,9,5,2,8,2,1,10,2,2,3],"default_left":[0,0,0,0,0,0,0,0,0,0,0,0,0,0,0,0,0,0,0,0,0,0,0,0,0,0,0,0,0,0,0,0,0,0,0,0,0,0,0,0,0,0,0,0,0,0,0,0,0,0,0,0,0,0,0,0,0,0,0,0,0,0,0,0,0,0,0,0,0,0,0,0,0,0,0,0,0,0,0,0,0,0,0,0,0,0,0,0,0,0,0,0,0,0,0,0,0,0,0,0,0,0,0,0,0,0,0,0,0,0,0,0,0,0,0,0,0,0,0,0,0,0,0],"id":9,"left_children":[1,3,5,7,9,11,13,15,17,19,21,23,25,27,29,31,33,35,37,39,41,43,45,47,49,51,53,55,57,59,61,63,65,67,69,71,73,75,77,79,81,83,85,87,89,91,93,95,97,99,101,103,105,107,109,111,113,-1,-1,115,117,119,121,-1,-1,-1,-1,-1,-1,-1,-1,-1,-1,-1,-1,-1,-1,-1,-1,-1,-1,-1,-1,-1,-1,-1,-1,-1,-1,-1,-1,-1,-1,-1,-1,-1,-1,-1,-1,-1,-1,-1,-1,-1,-1,-1,-1,-1,-1,-1,-1,-1,-1,-1,-1,-1,-1,-1,-1,-1,-1,-1,-1],"loss_changes":[1.9856967E2,5.2445923E1,5.9297806E1,1.8322739E1,2.2651245E1,1.7355682E1,4.4236366E1,1.616906E1,1.2675003E1,2.257196E1,8.834E0,9.917236E0,9.614901E0,4.1444244E1,3.1867342E1,5.293953E0,9.601385E0,5.110161E0,8.148285E0,2.3221447E1,1.8066925E1,9.084998E0,7.627227E0,1.2911003E1,4.946968E0,6.4180336E0,9.503278E0,3.661354E1,4.9926758E-2,5.917534E0,1.6095043E1,7.998828E0,6.522587E0,6.807337E0,9.068008E0,3.1138916E0,1.970686E0,4.9283066E0,1.1831316E1,1.1496151E1,2.5577747E1,1.4453461E1,1.8650856E1,4.956225E0,5.8915873E0,9.521069E0,1.1571512E1,3.201044E0,9.191931E0,7.554822E0,8.082687E0,5.5525665E0,6.9864616E0,5.386197E0,4.496043E0,3.7205795E1,3.4079853E1,0E0,0E0,5.218811E0,6.2105374E0,1.1390223E1,1.7279287E1,0E0,0E0,0E0,0E0,0E0,0E0,0E0,0E0,0E0,0E0,0E0,0E0,0E0,0E0,0E0,0E0,0E0,0E0,0E0,0E0,0E0,0E0,0E0,0E0,0E0,0E0,0E0,0E0,0E0,0E0,0E0,0E0,0E0,0E0,0E0,0E0,0E0,0E0,0E0,0E0,0E0,0E0,0E0,0E0,0E0,0E0,0E0,0E0,0E0,0E0,0E0,0E0,0E0,0E0,0E0,0E0,0E0,0E0,0E0,0E0],"parents":[2147483647,0,0,1,1,2,2,3,3,4,4,5,5,6,6,7,7,8,8,9,9,10,10,11,11,12,12,13,13,14,14,15,15,16,16,17,17,18,18,19,19,20,20,21,21,22,22,23,23,24,24,25,25,26,26,27,27,28,28,29,29,30,30,31,31,32,32,33,33,34,34,35,35,36,36,37,37,38,38,39,39,40,40,41,41,42,42,43,43,44,44,45,45,46,46,47,47,48,48,49,49,50,50,51,51,52,52,53,53,54,54,55,55,56,56,59,59,60,60,61,61,62,62],"right_children":[2,4,6,8,10,12,14,16,18,20,22,24,26,28,30,32,34,36,38,40,42,44,46,48,50,52,54,56,58,60,62,64,66,68,70,72,74,76,78,80,82,84,86,88,90,92,94,96,98,100,102,104,106,108,110,112,114,-1,-1,116,118,120,122,-1,-1,-1,-1,-1,-1,-1,-1,-1,-1,-1,-1,-1,-1,-1,-1,-1,-1,-1,-1,-1,-1,-1,-1,-1,-1,-1,-1,-1,-1,-1,-1,-1,-1,-1,-1,-1,-1,-1,-1,-1,-1,-1,-1,-1,-1,-1,-1,-1,-1,-1,-1,-1,-1,-1,-1,-1,-1,-1,-1],"split_conditions":[1.229E1,7.89E0,3.6E3,6.2E4,6E1,NaN,NaN,3.1E1,8.43E0,4.5E4,4.992E4,1.512931E-1,2.367E1,2.049E1,1.824E1,3.75E4,9E0,NaN,NaN,2.002E3,1.1E1,NaN,1.6E4,1.8E3,3.12E4,1.7E1,3.006E1,1E1,NaN,2.1E4,4.7E4,1.992E3,NaN,5.64E1,2.37E4,7.36E1,1.88E4,2.3E1,NaN,NaN,7.475E3,8.53E1,5E0,1.049E1,1.3E1,NaN,2.5725E4,1.3E1,8.61E1,NaN,5.07E1,2.1E4,2.004E3,1.8E3,2.004E3,3.648E4,NaN,4.0380698E-1,1.4182238E-1,2.7E4,6.94E1,NaN,NaN,-6.0706846E-2,1.0744119E-1,1.4824238E-1,-6.74421E-2,1.2246227E-1,1.6506024E-3,-4.095806E-1,-6.100851E-3,2.4790525E-1,2.415396E-2,1.708184E-1,8.026492E-2,1.3805813E-1,2.722978E-2,1.2024001E-1,-2.6739495E-2,7.136774E-3,-2.6101962E-1,1.12937756E-1,1.45845525E-2,9.2468604E-2,2.6829557E-2,4.3245766E-2,1.096261E-1,2.9802042E-1,3.061643E-3,-3.7736684E-2,-1.6643263E-1,7.583662E-2,-3.218493E-1,-2.1117944E-2,7.5510725E-2,1.3033684E-1,2.6366758E-1,6.0105253E-2,-7.5414255E-2,2.4615109E-1,1.1610151E-2,2.0723897E-1,1.11835234E-1,-1.5056606E-2,7.921949E-2,-1.6062826E-1,1.5010369E-1,6.667272E-2,-8.5243724E-2,2.188383E-2,1.7945457E-1,-2.2291555E-3,4.3519557E-2,2.0834196E-2,-1.0148749E-2,-7.639089E-2,1.3847272E-1,1.04418695E-1,-9.336485E-2,2.602261E-2,-4.656896E-2,7.266076E-4,-7.502259E-2],"split_indices":[1,1,0,2,7,9,10,6,5,2,2,3,5,1,1,2,4,9,11,12,4,9,0,0,2,4,5,4,9,0,2,12,9,6,2,6,0,4,9,9,0,6,3,1,4,9,0,4,6,9,6,2,12,0,12,2,11,0,0,2,6,11,9,0,0,0,0,0,0,0,0,0,0,0,0,0,0,0,0,0,0,0,0,0,0,0,0,0,0,0,0,0,0,0,0,0,0,0,0,0,0,0,0,0,0,0,0,0,0,0,0,0,0,0,0,0,0,0,0,0,0,0,0],"split_type":[0,0,0,0,0,1,1,0,0,0,0,0,0,0,0,0,0,1,1,0,0,1,0,0,0,0,0,0,1,0,0,0,1,0,0,0,0,0,1,1,0,0,0,0,0,1,0,0,0,1,0,0,0,0,0,0,1,0,0,0,0,1,1,0,0,0,0,0,0,0,0,0,0,0,0,0,0,0,0,0,0,0,0,0,0,0,0,0,0,0,0,0,0,0,0,0,0,0,0,0,0,0,0,0,0,0,0,0,0,0,0,0,0,0,0,0,0,0,0,0,0,0,0],"sum_hessian":[4.2593023E4,1.1241411E4,3.1351611E4,1.8957122E3,9.345699E3,1.6799922E3,2.967162E4,7.887044E2,1.1070077E3,8.34668E3,9.990194E2,9.3229926E2,7.47693E2,2.255547E4,7.116149E3,4.0436868E2,3.8433572E2,2.4092133E2,8.660864E2,2.161398E3,6.1852817E3,1.7794879E2,8.210706E2,4.9681848E2,4.3548074E2,5.225286E2,2.2516437E2,2.2530047E4,2.5423464E1,2.3680672E2,6.8793423E3,1.3033423E2,2.7403445E2,1.8048119E2,2.0385454E2,1.2309555E2,1.1782578E2,6.608363E2,2.0525014E2,1.2068317E3,9.5456635E2,2.8740728E3,3.311209E3,1.9720175E1,1.582286E2,2.4745726E2,5.7361334E2,1.153512E2,3.814673E2,7.513156E1,3.6034918E2,4.9239084E2,3.0137781E1,1.479875E2,7.717688E1,9.163737E3,1.336631E4,2.3949345E1,1.4741191E0,1.8124147E2,5.556524E1,1.706725E3,5.172617E3,3.370718E1,9.6627045E1,2.6132666E2,1.2707792E1,1.1449529E2,6.598589E1,4.1432743E0,1.9971126E2,1.1697931E2,6.116238E0,8.511357E1,3.2712215E1,6.219134E2,3.8922913E1,1.2465275E2,8.059739E1,1.1932673E3,1.3564291E1,5.0337552E2,4.5119086E2,2.5301191E3,3.4395352E2,2.8722183E3,4.3899078E2,8.411675E0,1.13085E1,1.1426523E2,4.3963383E1,2.4288628E2,4.5709844E0,4.2329517E2,1.503182E2,9.484487E1,2.0506323E1,3.30205E2,5.12623E1,1.4565475E1,6.0566086E1,1.2517911E2,2.3517009E2,6.437174E1,4.280191E2,2.1936014E1,8.201767E0,2.4490965E1,1.2349653E2,5.476599E1,2.2410885E1,2.065223E3,7.098514E3,8.084149E3,5.2821606E3,1.0200735E1,1.7104074E2,3.0155169E1,2.541007E1,2.2321991E2,1.4835051E3,4.8866772E3,2.859402E2],"tree_param":{"num_deleted":"0","num_feature":"15","num_nodes":"123","size_leaf_vector":"0"}},{"base_weights":[6.743565E-2,2.146E-1,4.8382197E-2,4.815079E-1,1.9249563E-1,9.1382645E-2,1.7777197E-2,5.8888376E-1,3.6235893E-1,3.2039505E-1,1.5779017E-1,7.973634E-2,2.6995942E-1,1.0390451E-1,3.188282E-3,3.4612337E-1,6.623282E-1,4.1900736E-1,-2.5325486E-1,-4.1662937E-1,3.3934173E-1,2.0695789E-1,5.651905E-2,4.0104825E-2,1.3228221E-1,4.011588E-1,2.275507E-1,1.1727716E-1,-3.0755514E-1,-6.867997E-2,2.66012E-2,-3.054792E-1,4.4151664E-1,6.945422E-1,-2.9622214E-2,6.9399476E-1,3.120057E-1,1.9917299E-1,-1.5344601E0,-2.5288142E-2,-1.05937E0,3.588417E-1,-7.2134234E-2,2.854899E-1,1.154999E-1,8.7695E-2,-2.6500478E-1,-5.326439E-4,1.1278582E-1,1.5377174E-1,-1.7769253E-2,2.6777676E-1,5.4892266E-1,2.6080665E-1,1.0461294E-2,1.2390466E-1,-8.260686E-1,-4.3501544E-1,3.0562785E-1,7.2022057E-1,-7.309115E-2,1.02229014E-1,-3.734357E-3,2.3004012E-1,-3.3140838E-1,2.117983E-1,1.4298513E-2,2.887945E-1,1.8814968E-1,-2.878661E-1,1.1145183E-1,-1.7613266E-1,2.3720668E-1,3.1002497E-2,1.4909689E-1,1.6442205E-1,-4.784737E-1,1.6182711E-2,-6.169659E-1,2.660703E-1,-9.482438E-2,-1.2502277E-2,-5.710738E-1,-3.6219444E-2,1.1135741E-1,-9.683148E-2,2.0845427E-1,2.1046996E-2,9.204538E-2,4.3608986E-2,-9.420572E-2,1.4390335E-2,8.98234E-2,-1.7565148E-1,-6.048892E-3,-2.3906738E-1,1.3581425E-3,3.5731573E-2,-1.7496495E-1,4.8784282E-2,-4.8015174E-2,4.010469E-2,-3.0095166E-2,1.2237411E-1,-4.321702E-2,-4.1476145E-2,1.7231515E-1,5.6027018E-2,1.193274E-1,-7.947277E-2,8.8812165E-2,2.9183695E-2,8.938256E-2,4.2358715E-2,-3.4461984E-1,1.0352192E-1,-1.8108746E-1,1.3561384E-1,-2.7973133E-1,6.747646E-2,3.5164177E-1,2.1716252E-2,-2.6060794E-2,-1.7933182E-2,3.669822E-2,-9.145957E-3,2.4661979E-2],"categories":[5,6,7,9,11,2,3,4,6,8,9,10,11,12,13,5,11,1,4,9,3,10,11,12,1,2,3,0,1,0,2,3,4,5,6,7,0,1,2,3,5,7,8,9,10,11,12,13,2,0,0,8,9,11,12,7,8,11],"categories_nodes":[8,12,13,19,20,21,23,29,31,33,37,39,44,49],"categories_segments":[0,5,15,17,20,24,27,28,29,36,48,49,50,55],"categories_sizes":[5,10,2,3,4,3,1,1,7,12,1,1,5,3],"default_left":[0,0,0,0,0,0,0,0,0,0,0,0,0,0,0,0,0,0,0,0,0,0,0,0,0,0,0,0,0,0,0,0,0,0,0,0,0,0,0,0,0,0,0,0,0,0,0,0,0,0,0,0,0,0,0,0,0,0,0,0,0,0,0,0,0,0,0,0,0,0,0,0,0,0,0,0,0,0,0,0,0,0,0,0,0,0,0,0,0,0,0,0,0,0,0,0,0,0,0,0,0,0,0,0,0,0,0,0,0,0,0,0,0,0,0,0,0,0,0,0,0,0,0,0,0,0,0],"id":10,"left_children":[1,3,5,7,9,11,13,15,17,19,21,23,25,27,29,31,33,35,37,39,41,43,45,47,49,51,53,55,57,59,61,63,65,67,69,71,73,75,77,79,81,83,85,87,89,91,93,95,97,99,101,103,105,107,109,111,113,115,117,119,121,123,125,-1,-1,-1,-1,-1,-1,-1,-1,-1,-1,-1,-1,-1,-1,-1,-1,-1,-1,-1,-1,-1,-1,-1,-1,-1,-1,-1,-1,-1,-1,-1,-1,-1,-1,-1,-1,-1,-1,-1,-1,-1,-1,-1,-1,-1,-1,-1,-1,-1,-1,-1,-1,-1,-1,-1,-1,-1,-1,-1,-1,-1,-1,-1,-1],"loss_changes":[1.17150314E2,2.8163574E1,4.8685173E1,4.464432E0,1.9589859E1,3.1969986E1,2.7157658E1,3.1711578E0,6.240902E0,1.3315361E1,1.7327568E1,3.0069656E1,5.1464157E0,1.7262596E1,3.11041E1,3.0185695E0,3.2599716E0,4.5345306E0,9.259425E0,6.03344E0,7.410309E0,1.6801094E1,1.1445249E1,2.4320047E1,2.00234E1,4.3593254E0,5.149933E0,1.9064472E1,7.856783E0,1.5859709E1,3.1988258E1,6.430759E0,4.224349E0,1.9054031E0,3.125735E0,5.9659214E0,4.5055056E0,8.573886E0,3.5492392E0,4.5244274E0,7.733346E0,5.24984E0,8.389126E0,5.766716E0,1.3956022E1,8.728912E0,7.91154E0,2.1287868E1,1.305711E1,1.5097382E1,9.748747E0,7.106764E0,1.9606209E0,6.2017365E0,7.616204E0,1.393129E1,6.806802E0,1.1024113E1,3.610969E0,5.4104233E0,9.062172E0,1.300436E1,2.288371E1,0E0,0E0,0E0,0E0,0E0,0E0,0E0,0E0,0E0,0E0,0E0,0E0,0E0,0E0,0E0,0E0,0E0,0E0,0E0,0E0,0E0,0E0,0E0,0E0,0E0,0E0,0E0,0E0,0E0,0E0,0E0,0E0,0E0,0E0,0E0,0E0,0E0,0E0,0E0,0E0,0E0,0E0,0E0,0E0,0E0,0E0,0E0,0E0,0E0,0E0,0E0,0E0,0E0,0E0,0E0,0E0,0E0,0E0,0E0,0E0,0E0,0E0,0E0,0E0],"parents":[2147483647,0,0,1,1,2,2,3,3,4,4,5,5,6,6,7,7,8,8,9,9,10,10,11,11,12,12,13,13,14,14,15,15,16,16,17,17,18,18,19,19,20,20,21,21,22,22,23,23,24,24,25,25,26,26,27,27,28,28,29,29,30,30,31,31,32,32,33,33,34,34,35,35,36,36,37,37,38,38,39,39,40,40,41,41,42,42,43,43,44,44,45,45,46,46,47,47,48,48,49,49,50,50,51,51,52,52,53,53,54,54,55,55,56,56,57,57,58,58,59,59,60,60,61,61,62,62],"right_children":[2,4,6,8,10,12,14,16,18,20,22,24,26,28,30,32,34,36,38,40,42,44,46,48,50,52,54,56,58,60,62,64,66,68,70,72,74,76,78,80,82,84,86,88,90,92,94,96,98,100,102,104,106,108,110,112,114,116,118,120,122,124,126,-1,-1,-1,-1,-1,-1,-1,-1,-1,-1,-1,-1,-1,-1,-1,-1,-1,-1,-1,-1,-1,-1,-1,-1,-1,-1,-1,-1,-1,-1,-1,-1,-1,-1,-1,-1,-1,-1,-1,-1,-1,-1,-1,-1,-1,-1,-1,-1,-1,-1,-1,-1,-1,-1,-1,-1,-1,-1,-1,-1,-1,-1,-1,-1],"split_conditions":[9.76E0,6.24E0,1.449E1,1.391E1,2.38E1,1.433E1,6.075E3,5.1648E4,NaN,1.977E3,2.052E1,1.0074048E0,NaN,NaN,4.6E4,6E0,2.1E1,1.96E1,2.31E1,NaN,NaN,NaN,2.1E1,NaN,2.716E1,6E4,1.7E1,2.569E1,2.295E1,NaN,1.45E4,NaN,1E1,NaN,2.2E1,2E0,1.997E3,NaN,1.994E3,NaN,7.9E0,2.1E4,2.003E3,4.25E4,NaN,2.05E4,7.1448E4,1.974E3,1.5E5,NaN,1.2E1,1.446E1,4.075E3,6.6E4,2E1,7.3E4,3.075E3,3E3,1.7E1,3.648E4,9.25E0,1.51E1,1.03141E5,2.3004012E-1,-3.3140838E-1,2.117983E-1,1.4298513E-2,2.887945E-1,1.8814968E-1,-2.878661E-1,1.1145183E-1,-1.7613266E-1,2.3720668E-1,3.1002497E-2,1.4909689E-1,1.6442205E-1,-4.784737E-1,1.6182711E-2,-6.169659E-1,2.660703E-1,-9.482438E-2,-1.2502277E-2,-5.710738E-1,-3.6219444E-2,1.1135741E-1,-9.683148E-2,2.0845427E-1,2.1046996E-2,9.204538E-2,4.3608986E-2,-9.420572E-2,1.4390335E-2,8.98234E-2,-1.7565148E-1,-6.048892E-3,-2.3906738E-1,1.3581425E-3,3.5731573E-2,-1.7496495E-1,4.8784282E-2,-4.8015174E-2,4.010469E-2,-3.0095166E-2,1.2237411E-1,-4.321702E-2,-4.1476145E-2,1.7231515E-1,5.6027018E-2,1.193274E-1,-7.947277E-2,8.8812165E-2,2.9183695E-2,8.938256E-2,4.2358715E-2,-3.4461984E-1,1.0352192E-1,-1.8108746E-1,1.3561384E-1,-2.7973133E-1,6.747646E-2,3.5164177E-1,2.1716252E-2,-2.6060794E-2,-1.7933182E-2,3.669822E-2,-9.145957E-3,2.4661979E-2],"split_indices":[1,1,1,5,6,1,0,2,9,12,5,3,9,9,2,4,4,6,5,9,9,11,4,14,5,2,4,1,1,8,0,9,4,9,4,6,12,11,12,10,1,2,12,2,9,0,2,12,2,9,4,1,0,2,4,2,0,0,4,2,5,1,2,0,0,0,0,0,0,0,0,0,0,0,0,0,0,0,0,0,0,0,0,0,0,0,0,0,0,0,0,0,0,0,0,0,0,0,0,0,0,0,0,0,0,0,0,0,0,0,0,0,0,0,0,0,0,0,0,0,0,0,0,0,0,0,0],"split_type":[0,0,0,0,0,0,0,0,1,0,0,0,1,1,0,0,0,0,0,1,1,1,0,1,0,0,0,0,0,1,0,1,0,1,0,0,0,1,0,1,0,0,0,0,1,0,0,0,0,1,0,0,0,0,0,0,0,0,0,0,0,0,0,0,0,0,0,0,0,0,0,0,0,0,0,0,0,0,0,0,0,0,0,0,0,0,0,0,0,0,0,0,0,0,0,0,0,0,0,0,0,0,0,0,0,0,0,0,0,0,0,0,0,0,0,0,0,0,0,0,0,0,0,0,0,0,0],"sum_hessian":[4.1782574E4,4.788337E3,3.6994234E4,3.6463403E2,4.423703E3,1.5381304E4,2.1612932E4,1.8971887E2,1.7491515E2,9.424132E2,3.4812898E3,1.4440949E4,9.403546E2,3.1297827E3,1.8483148E4,4.5392624E1,1.4432625E2,1.604683E2,1.4446835E1,2.3093374E1,9.193198E2,2.342802E3,1.1384877E3,8.233094E3,6.207856E3,2.2764188E2,7.127127E2,3.0319575E3,9.782521E1,4.5412876E3,1.3941861E4,5.5155125E0,3.9877113E1,1.379024E2,6.4238434E0,4.341324E1,1.1705507E2,1.1300772E1,3.1460626E0,1.4999856E1,8.093518E0,8.7784644E2,4.147343E1,1.2593326E3,1.0834694E3,1.0385171E3,9.997058E1,5.2812363E3,2.9518572E3,5.430155E3,7.7770123E2,1.211214E2,1.06520485E2,6.1786115E2,9.48516E1,3.0116675E3,2.0289886E1,8.123063E1,1.6594578E1,2.4349327E1,4.516938E3,3.9906458E3,9.951216E3,2.372701E0,3.1428118E0,2.3382797E1,1.6494314E1,2.5027018E1,1.1287539E2,1.5163559E0,4.907488E0,2.6908107E0,4.0722427E1,5.573922E1,6.1315853E1,1.0042325E1,1.2584465E0,1.0000911E0,2.1459715E0,3.130343E0,1.18695135E1,4.145488E0,3.94803E0,2.1817917E1,8.560285E2,3.1695135E1,9.7782955E0,1.1387827E2,1.1454543E3,1.01365405E3,6.981531E1,8.754678E2,1.6304935E2,4.269331E1,5.7277275E1,3.235525E1,5.248881E3,2.9261182E3,2.5739101E1,5.2818115E3,1.4834294E2,2.7413098E2,5.0357022E2,9.037761E1,3.0743784E1,3.6474912E0,1.0287299E2,4.0255975E2,2.1530139E2,4.832575E1,4.6525852E1,2.6134058E3,3.9826184E2,5.2160153E0,1.5073871E1,1.4250887E1,6.6979744E1,1.5407327E1,1.1872511E0,1.2331647E1,1.201768E1,3.9041647E2,4.1265215E3,4.4021832E2,3.5504275E3,7.5893936E3,2.3618223E3],"tree_param":{"num_deleted":"0","num_feature":"15","num_nodes":"127","size_leaf_vector":"0"}},{"base_weights":[4.8615914E-2,1.3082244E-1,2.8460184E-2,2.5050524E-1,1.0198543E-1,-3.2648668E-1,3.1823356E-2,4.0441987E-1,2.0553616E-1,1.5579133E-1,4.6263635E-2,-6.518398E-3,-5.3242344E-1,8.029596E-2,9.463269E-3,-3.1456597E-2,4.4670004E-1,2.6143628E-1,9.489333E-2,1.7521626E-1,-1.9588359E-2,6.591507E-2,-2.0037515E-1,-1.0141469E-1,7.926313E-1,-1.9686031E0,-4.926753E-1,-5.5270356E-1,8.458958E-2,8.515203E-2,-8.764671E-3,-8.549122E-1,2.8161028E-1,6.8660253E-1,3.74211E-1,2.785539E-1,-2.2138353E-1,-2.3948082E-1,1.5947045E-1,3.910902E-2,1.9457647E-1,1.785775E-1,-1.5089355E-1,8.3544515E-2,-1.6618946E-1,-3.9087513E-1,-4.2296205E-2,1.3663013E-1,-4.19411E-1,2.3253694E-1,9.690997E-1,-7.83252E-1,4.2078517E-2,-4.1334796E-1,-1.0320939E0,-8.4898084E-1,-2.4603021E-1,1.1907649E-1,2.064343E-2,9.348694E-2,-4.5567164E-1,3.0883884E-3,-1.4681609E-1,-6.039946E-1,-3.2273483E-2,2.0474498E-1,-3.1137617E-2,-1.5438294E-1,2.1585323E-1,1.4648305E-1,6.435706E-2,1.1356968E-1,5.2282665E-2,8.735471E-2,-2.624186E-1,-1.0807141E-1,2.3285823E-1,8.32808E-2,-2.8888779E-3,3.23469E-2,-7.02732E-2,6.36965E-2,9.365755E-3,9.710618E-2,-1.9314561E-2,4.435892E-2,-9.727356E-2,2.1362545E-3,4.1135293E-2,-7.20499E-2,1.24703474E-1,-7.8132115E-2,-2.7510315E-1,9.9859506E-2,-5.4820497E-2,-1.7020887E-1,8.048677E-2,1.433513E-2,-2.1128365E-1,2.2843862E-1,-1.3592228E-1,3.1567213E-1,1.20393224E-1,-2.2097787E-2,-1.6905801E-1,-4.026384E-1,8.681621E-3,-3.4879124E-1,-8.974305E-3,1.4936262E-1,-1.166232E-1,-6.961718E-2,3.8743965E-2,2.9894978E-2,-6.4890306E-3,4.286399E-2,3.9799074E-3,-6.501563E-2,-3.121343E-1,-1.0964711E-2,1.1319654E-2,-5.8495406E-2,8.902115E-3],"categories":[1,2,3,0,1,2,3,7,9,10,11,3,10,11,0,8,9,10,11,12,3,1,6,4,6,7,8,11,2,6,1,2,3,2,3,4,5,7,8,10,12,13,1,0,1,2,3,5,6,7,8,10,11,1,2,3],"categories_nodes":[4,16,17,21,23,28,29,30,32,38,42,49,56,58],"categories_segments":[0,3,11,14,20,21,22,23,28,30,33,42,43,53],"categories_sizes":[3,8,3,6,1,1,1,5,2,3,9,1,10,3],"default_left":[0,0,0,0,0,0,0,0,0,0,0,0,0,0,0,0,0,0,0,0,0,0,0,0,0,0,0,0,0,0,0,0,0,0,0,0,0,0,0,0,0,0,0,0,0,0,0,0,0,0,0,0,0,0,0,0,0,0,0,0,0,0,0,0,0,0,0,0,0,0,0,0,0,0,0,0,0,0,0,0,0,0,0,0,0,0,0,0,0,0,0,0,0,0,0,0,0,0,0,0,0,0,0,0,0,0,0,0,0,0,0,0,0,0,0,0,0,0,0,0,0,0,0],"id":11,"left_children":[1,3,5,7,9,11,13,15,17,19,21,23,25,27,29,31,33,35,37,39,41,43,45,47,49,51,53,55,57,59,61,63,65,67,69,71,73,75,77,79,81,83,85,87,89,91,93,95,97,99,101,-1,-1,103,105,107,109,111,113,115,117,119,121,-1,-1,-1,-1,-1,-1,-1,-1,-1,-1,-1,-1,-1,-1,-1,-1,-1,-1,-1,-1,-1,-1,-1,-1,-1,-1,-1,-1,-1,-1,-1,-1,-1,-1,-1,-1,-1,-1,-1,-1,-1,-1,-1,-1,-1,-1,-1,-1,-1,-1,-1,-1,-1,-1,-1,-1,-1,-1,-1,-1],"loss_changes":[6.823054E1,2.7959335E1,3.9491837E1,1.0808975E1,1.9588264E1,2.045795E1,3.551058E1,6.5524216E0,7.520191E0,1.1329674E1,1.5581993E1,9.378605E0,9.814407E0,2.8156609E1,3.0935799E1,8.569068E0,5.3685226E0,6.7550087E0,8.913484E0,7.8797684E0,8.676516E0,1.2190807E1,7.129424E0,8.420469E0,1.072154E0,6.804764E0,7.496544E0,6.134447E0,2.2654465E1,1.9660057E1,2.957129E1,7.7018666E0,3.8033412E0,3.2901192E0,4.460228E0,8.095615E0,9.727427E0,8.488785E0,6.896372E0,7.050105E0,7.588951E0,4.707651E0,1.0430794E1,1.1325645E1,9.156898E0,7.137924E0,6.952572E0,6.0784407E0,6.361171E0,1.9626614E0,3.405094E-2,0E0,0E0,8.278379E0,7.628132E0,8.982817E0,3.985055E0,2.3629135E1,1.2028198E1,1.6983646E1,9.028076E0,2.2856045E1,1.2153587E1,0E0,0E0,0E0,0E0,0E0,0E0,0E0,0E0,0E0,0E0,0E0,0E0,0E0,0E0,0E0,0E0,0E0,0E0,0E0,0E0,0E0,0E0,0E0,0E0,0E0,0E0,0E0,0E0,0E0,0E0,0E0,0E0,0E0,0E0,0E0,0E0,0E0,0E0,0E0,0E0,0E0,0E0,0E0,0E0,0E0,0E0,0E0,0E0,0E0,0E0,0E0,0E0,0E0,0E0,0E0,0E0,0E0,0E0,0E0,0E0],"parents":[2147483647,0,0,1,1,2,2,3,3,4,4,5,5,6,6,7,7,8,8,9,9,10,10,11,11,12,12,13,13,14,14,15,15,16,16,17,17,18,18,19,19,20,20,21,21,22,22,23,23,24,24,25,25,26,26,27,27,28,28,29,29,30,30,31,31,32,32,33,33,34,34,35,35,36,36,37,37,38,38,39,39,40,40,41,41,42,42,43,43,44,44,45,45,46,46,47,47,48,48,49,49,50,50,53,53,54,54,55,55,56,56,57,57,58,58,59,59,60,60,61,61,62,62],"right_children":[2,4,6,8,10,12,14,16,18,20,22,24,26,28,30,32,34,36,38,40,42,44,46,48,50,52,54,56,58,60,62,64,66,68,70,72,74,76,78,80,82,84,86,88,90,92,94,96,98,100,102,-1,-1,104,106,108,110,112,114,116,118,120,122,-1,-1,-1,-1,-1,-1,-1,-1,-1,-1,-1,-1,-1,-1,-1,-1,-1,-1,-1,-1,-1,-1,-1,-1,-1,-1,-1,-1,-1,-1,-1,-1,-1,-1,-1,-1,-1,-1,-1,-1,-1,-1,-1,-1,-1,-1,-1,-1,-1,-1,-1,-1,-1,-1,-1,-1,-1,-1,-1,-1],"split_conditions":[1.153E1,2.43E1,1.155E1,7.26E0,NaN,4.41E1,9E0,3.05E4,1.325E4,6E1,1.9E1,2.008E3,1.981E3,1.975E3,3.72E1,5.4E0,NaN,NaN,5.04E4,4.3E4,1.554E1,NaN,9.49E0,NaN,1.032E1,6.38E1,8.87E1,7E0,NaN,NaN,NaN,5.202312E-2,NaN,1.976E3,1.6E1,1.424E1,8.75E3,2.768E1,NaN,6.52E1,2.75E1,2.05E4,NaN,1.999E3,2.5416822E0,2.768E1,1.015E1,1.991E3,1.476E1,NaN,5.202312E-2,-7.83252E-1,4.2078517E-2,9E0,2.1525E4,1.7325E4,NaN,1.8E4,NaN,1.56E4,2.5725E4,6.1E4,1.095E5,-6.039946E-1,-3.2273483E-2,2.0474498E-1,-3.1137617E-2,-1.5438294E-1,2.1585323E-1,1.4648305E-1,6.435706E-2,1.1356968E-1,5.2282665E-2,8.735471E-2,-2.624186E-1,-1.0807141E-1,2.3285823E-1,8.32808E-2,-2.8888779E-3,3.23469E-2,-7.02732E-2,6.36965E-2,9.365755E-3,9.710618E-2,-1.9314561E-2,4.435892E-2,-9.727356E-2,2.1362545E-3,4.1135293E-2,-7.20499E-2,1.24703474E-1,-7.8132115E-2,-2.7510315E-1,9.9859506E-2,-5.4820497E-2,-1.7020887E-1,8.048677E-2,1.433513E-2,-2.1128365E-1,2.2843862E-1,-1.3592228E-1,3.1567213E-1,1.20393224E-1,-2.2097787E-2,-1.6905801E-1,-4.026384E-1,8.681621E-3,-3.4879124E-1,-8.974305E-3,1.4936262E-1,-1.166232E-1,-6.961718E-2,3.8743965E-2,2.9894978E-2,-6.4890306E-3,4.286399E-2,3.9799074E-3,-6.501563E-2,-3.121343E-1,-1.0964711E-2,1.1319654E-2,-5.8495406E-2,8.902115E-3],"split_indices":[1,6,1,1,11,6,4,2,0,7,4,12,12,12,6,6,9,9,2,2,5,9,1,11,5,6,6,4,14,10,9,3,9,12,6,5,0,5,11,6,5,0,9,12,3,5,1,12,5,14,3,0,0,4,0,0,9,2,11,0,0,2,2,0,0,0,0,0,0,0,0,0,0,0,0,0,0,0,0,0,0,0,0,0,0,0,0,0,0,0,0,0,0,0,0,0,0,0,0,0,0,0,0,0,0,0,0,0,0,0,0,0,0,0,0,0,0,0,0,0,0,0,0],"split_type":[0,0,0,0,1,0,0,0,0,0,0,0,0,0,0,0,1,1,0,0,0,1,0,1,0,0,0,0,1,1,1,0,1,0,0,0,0,0,1,0,0,0,1,0,0,0,0,0,0,1,0,0,0,0,0,0,1,0,1,0,0,0,0,0,0,0,0,0,0,0,0,0,0,0,0,0,0,0,0,0,0,0,0,0,0,0,0,0,0,0,0,0,0,0,0,0,0,0,0,0,0,0,0,0,0,0,0,0,0,0,0,0,0,0,0,0,0,0,0,0,0,0,0],"sum_hessian":[4.118007E4,8.107517E3,3.307255E4,1.572685E3,6.534832E3,3.095239E2,3.276303E4,3.5378833E2,1.2188967E3,3.3236572E3,3.2111748E3,1.2160903E2,1.8791486E2,1.0341641E4,2.2421389E4,3.1305754E1,3.2248257E2,8.0886884E2,4.1002792E2,2.9922397E3,3.3141745E2,2.9748782E3,2.3629654E2,1.0948157E2,1.2127465E1,3.7538466E0,1.8416101E2,6.881398E1,1.0272826E4,4.3509707E3,1.8070418E4,8.146737E0,2.3159018E1,7.286476E1,2.4961781E2,7.815821E2,2.7286707E1,6.593166E1,3.4409625E2,3.729969E2,2.619243E3,1.3193741E2,1.9948003E2,2.7654678E3,2.0941046E2,1.06491554E2,1.2980498E2,6.2937973E1,4.6543594E1,3.4608319E0,8.666633E0,2.6950588E0,1.0587878E0,1.6209018E2,2.2070831E1,3.410081E1,3.4713173E1,6.6730884E3,3.5997375E3,4.285748E3,6.522274E1,1.6642477E4,1.427941E3,2.5304394E0,5.6162977E0,1.0973839E1,1.2185179E1,1.5526392E0,7.1312126E1,1.4440833E2,1.0520948E2,3.9761023E2,3.839719E2,1.5601361E1,1.1685346E1,5.9502518E1,6.4291434E0,2.0219939E2,1.4189687E2,2.9855365E2,7.444323E1,2.362328E3,2.5691492E2,8.239435E1,4.9543068E1,7.33003E1,1.26179726E2,1.1401469E3,1.625321E3,1.8631073E2,2.3099726E1,8.653386E1,1.9957693E1,3.4982986E1,9.482199E1,9.394641E0,5.354333E1,1.7945124E1,2.859847E1,1.8912026E0,1.5696292E0,6.8154335E0,1.8511994E0,5.0148956E1,1.1194123E2,1.6875021E1,5.195811E0,2.4354815E1,9.745997E0,5.1869903E0,2.9526182E1,1.8542554E2,6.487663E3,1.2542563E3,2.3454812E3,2.6520562E3,1.6336919E3,4.727549E1,1.794725E1,7.7618086E3,8.880668E3,1.1216967E3,3.0624445E2],"tree_param":{"num_deleted":"0","num_feature":"15","num_nodes":"123","size_leaf_vector":"0"}},{"base_weights":[3.4910228E-2,8.649565E-2,1.2660349E-2,1.0168405E-1,-5.893179E-2,3.2105163E-1,9.281454E-3,6.952604E-2,1.7174767E-1,-7.837785E-2,4.020799E-1,2.5441986E-1,6.136185E-1,-7.9145486E-4,1.0871884E-1,9.022091E-2,-5.0877742E-3,1.5317638E-1,4.8736066E-1,-1.7194226E-2,-1.8748492E-1,5.3493273E-1,-1.2685348E-1,-6.1949277E-1,2.7631965E-1,7.290524E-1,9.739484E-2,4.231585E-1,-2.887747E-3,3.8948017E-1,8.8774145E-2,-5.577001E-2,1.0719983E-1,5.7707377E-2,-1.1700347E-1,2.0689088E-1,5.3341202E-2,5.0428224E-1,-3.7767437E-1,-1.5053922E0,-1.0130035E-2,-9.0599734E-1,-1.5489572E-1,-4.5835868E-1,6.081663E-1,2.4005714E-1,-4.916348E-1,6.1464846E-1,-1.4898701E0,1.4010379E-1,4.099462E-1,7.816837E-1,-1.5551028E-1,-3.2641828E-1,7.843505E-1,4.478923E-1,-2.7479252E-1,-3.7795624E-3,6.638109E-1,6.632762E-1,2.6298788E-1,-7.588043E-2,1.2363404E-1,-7.93224E-2,2.8408267E-2,4.6477616E-2,1.9063756E-2,3.5290133E-2,-3.2605935E-2,7.81122E-2,-4.750471E-2,7.815701E-2,4.675975E-2,2.5801439E-2,-8.480156E-2,1.8741184E-1,9.713529E-2,4.487095E-2,-7.092141E-1,3.4094548E-3,-1.5099753E-1,-7.386488E-2,-3.7784606E-1,-2.8628018E-2,-1.0563968E-1,-2.5710067E-1,4.4036407E-2,2.04223E-1,-6.737519E-2,-3.334129E-1,1.1258386E-1,4.010251E-2,2.3356281E-1,-6.3788486E-1,4.9026363E-2,1.2699743E-2,1.8904975E-1,2.4917546E-1,9.8620966E-2,2.5240687E-1,2.3831967E-2,3.279468E-2,-4.1644895E-1,2.8404877E-1,3.0881487E-2,1.4665347E-1,-6.992531E-2,5.7114866E-3,-8.656612E-3,-2.164235E-1,2.4330585E-1,-3.203681E-1,2.257917E-1,5.5200357E-2,2.4298921E-1,-4.9756456E-2,5.6873262E-2,1.9590811E-1,3.3631645E-2],"categories":[2,3,4,5,6,0,1,2,4,5,6,7,8,9,10,11,12,1,3,4,6,7,9,11,1,2,9,6,2,2,3,6,9,12,13,2,3,0,1,2,3,4,7,8,9,10,11,13],"categories_nodes":[0,13,16,17,23,27,28,29,41,57,62],"categories_segments":[0,5,17,24,25,27,28,29,35,36,37],"categories_sizes":[5,12,7,1,2,1,1,6,1,1,11],"default_left":[0,0,0,0,0,0,0,0,0,0,0,0,0,0,0,0,0,0,0,0,0,0,0,0,0,0,0,0,0,0,0,0,0,0,0,0,0,0,0,0,0,0,0,0,0,0,0,0,0,0,0,0,0,0,0,0,0,0,0,0,0,0,0,0,0,0,0,0,0,0,0,0,0,0,0,0,0,0,0,0,0,0,0,0,0,0,0,0,0,0,0,0,0,0,0,0,0,0,0,0,0,0,0,0,0,0,0,0,0,0,0,0,0,0,0,0,0,0,0],"id":12,"left_children":[1,3,5,7,9,11,13,15,17,19,21,23,25,27,29,31,33,35,37,39,41,43,45,47,49,51,53,55,57,59,61,63,65,67,69,71,73,75,-1,77,79,81,83,85,87,-1,89,91,93,95,97,99,-1,101,103,105,-1,107,109,111,113,115,117,-1,-1,-1,-1,-1,-1,-1,-1,-1,-1,-1,-1,-1,-1,-1,-1,-1,-1,-1,-1,-1,-1,-1,-1,-1,-1,-1,-1,-1,-1,-1,-1,-1,-1,-1,-1,-1,-1,-1,-1,-1,-1,-1,-1,-1,-1,-1,-1,-1,-1,-1,-1,-1,-1,-1,-1],"loss_changes":[4.6803776E1,2.7148643E1,2.9685911E1,2.5057693E1,1.0454632E1,5.86285E0,2.8229717E1,1.177906E1,2.0438148E1,7.4496627E0,3.386078E0,5.0168514E0,3.2997646E0,2.2745834E1,1.448208E1,1.4808582E1,1.1653568E1,1.7721214E1,6.368244E0,7.5163903E0,9.24996E0,3.0380898E0,3.8724217E0,7.895854E0,4.4510612E0,3.4301586E0,3.601684E0,4.581312E0,1.5144797E1,5.770296E0,1.3909838E1,1.9577007E1,1.1136265E1,1.0605091E1,9.340349E0,5.8419266E0,1.2734644E1,3.9901695E0,0E0,5.153664E0,7.5753794E0,3.699895E0,4.480261E0,8.9170897E-1,2.3140488E0,0E0,4.716371E0,1.6358459E-1,4.664277E0,5.9231234E0,3.9803772E0,1.8024521E0,0E0,3.7663803E0,4.205103E-1,3.5809002E0,0E0,1.4553566E1,7.523759E0,9.093378E0,4.995E0,1.0152624E1,1.2126926E1,0E0,0E0,0E0,0E0,0E0,0E0,0E0,0E0,0E0,0E0,0E0,0E0,0E0,0E0,0E0,0E0,0E0,0E0,0E0,0E0,0E0,0E0,0E0,0E0,0E0,0E0,0E0,0E0,0E0,0E0,0E0,0E0,0E0,0E0,0E0,0E0,0E0,0E0,0E0,0E0,0E0,0E0,0E0,0E0,0E0,0E0,0E0,0E0,0E0,0E0,0E0,0E0,0E0,0E0,0E0,0E0],"parents":[2147483647,0,0,1,1,2,2,3,3,4,4,5,5,6,6,7,7,8,8,9,9,10,10,11,11,12,12,13,13,14,14,15,15,16,16,17,17,18,18,19,19,20,20,21,21,22,22,23,23,24,24,25,25,26,26,27,27,28,28,29,29,30,30,31,31,32,32,33,33,34,34,35,35,36,36,37,37,39,39,40,40,41,41,42,42,43,43,44,44,46,46,47,47,48,48,49,49,50,50,51,51,53,53,54,54,55,55,57,57,58,58,59,59,60,60,61,61,62,62],"right_children":[2,4,6,8,10,12,14,16,18,20,22,24,26,28,30,32,34,36,38,40,42,44,46,48,50,52,54,56,58,60,62,64,66,68,70,72,74,76,-1,78,80,82,84,86,88,-1,90,92,94,96,98,100,-1,102,104,106,-1,108,110,112,114,116,118,-1,-1,-1,-1,-1,-1,-1,-1,-1,-1,-1,-1,-1,-1,-1,-1,-1,-1,-1,-1,-1,-1,-1,-1,-1,-1,-1,-1,-1,-1,-1,-1,-1,-1,-1,-1,-1,-1,-1,-1,-1,-1,-1,-1,-1,-1,-1,-1,-1,-1,-1,-1,-1,-1,-1,-1],"split_conditions":[NaN,6E1,1.8E3,7.6E4,1.67E5,6.3E4,5E0,1.475E4,7E0,2.01E4,1.8E1,3E0,1.7E1,NaN,5.85E3,2.76E4,NaN,NaN,3.2E1,1.969E3,4.992E4,2.2169532E-1,2.01E4,NaN,2.002E3,7E0,7.78E1,NaN,NaN,NaN,5.52E4,2E3,1.717E1,2.45E1,1.987E3,1.2E1,8.65E1,6.24E1,-3.7767437E-1,1.525E4,8.41E1,NaN,1.229E1,1.997E3,2.071E1,2.4005714E-1,2.5725E4,1.855E1,1.0328947E-1,1E0,1.353E1,2.006E3,-1.5551028E-1,7.12E1,2.3313859E0,2.942E1,-2.7479252E-1,NaN,6.4E3,2.6E4,8E0,1E0,NaN,-7.93224E-2,2.8408267E-2,4.6477616E-2,1.9063756E-2,3.5290133E-2,-3.2605935E-2,7.81122E-2,-4.750471E-2,7.815701E-2,4.675975E-2,2.5801439E-2,-8.480156E-2,1.8741184E-1,9.713529E-2,4.487095E-2,-7.092141E-1,3.4094548E-3,-1.5099753E-1,-7.386488E-2,-3.7784606E-1,-2.8628018E-2,-1.0563968E-1,-2.5710067E-1,4.4036407E-2,2.04223E-1,-6.737519E-2,-3.334129E-1,1.1258386E-1,4.010251E-2,2.3356281E-1,-6.3788486E-1,4.9026363E-2,1.2699743E-2,1.8904975E-1,2.4917546E-1,9.8620966E-2,2.5240687E-1,2.3831967E-2,3.279468E-2,-4.1644895E-1,2.8404877E-1,3.0881487E-2,1.4665347E-1,-6.992531E-2,5.7114866E-3,-8.656612E-3,-2.164235E-1,2.4330585E-1,-3.203681E-1,2.257917E-1,5.5200357E-2,2.4298921E-1,-4.9756456E-2,5.6873262E-2,1.9590811E-1,3.3631645E-2],"split_indices":[10,7,0,2,2,2,3,0,3,0,4,4,4,9,0,2,9,14,4,12,2,3,0,9,12,3,6,10,8,9,2,12,5,5,12,4,6,6,0,0,6,9,1,12,5,0,0,1,3,13,1,12,0,6,3,5,0,11,0,2,3,13,9,0,0,0,0,0,0,0,0,0,0,0,0,0,0,0,0,0,0,0,0,0,0,0,0,0,0,0,0,0,0,0,0,0,0,0,0,0,0,0,0,0,0,0,0,0,0,0,0,0,0,0,0,0,0,0,0],"split_type":[1,0,0,0,0,0,0,0,0,0,0,0,0,1,0,0,1,1,0,0,0,0,0,1,0,0,0,1,1,1,0,0,0,0,0,0,0,0,0,0,0,1,0,0,0,0,0,0,0,0,0,0,0,0,0,0,0,1,0,0,0,0,1,0,0,0,0,0,0,0,0,0,0,0,0,0,0,0,0,0,0,0,0,0,0,0,0,0,0,0,0,0,0,0,0,0,0,0,0,0,0,0,0,0,0,0,0,0,0,0,0,0,0,0,0,0,0,0,0],"sum_hessian":[4.077798E4,1.2287358E4,2.8490621E4,1.1125695E4,1.1616636E3,